tree
version=v4
num_class=1
num_tree_per_iteration=1
label_index=0
max_feature_idx=12
objective=regression
feature_names=delta_speed_m_s rep_count Lift_Type AU04_max AU06_max AU07_max AU09_max AU10_max AU12_max AU17_max AU20_max AU25_max AU26_max
feature_infos=[0:1.8369450086325949] [1:15] -1:2:0:1 [0.68999999999999995:3.6600000000000001] [0.080000000000000002:2.4199999999999999] [0.19:5] [0.080000000000000002:3.3300000000000001] [0.17000000000000001:4.2699999999999996] [0:2.79] [1.3500000000000001:5] [0.64000000000000001:5] [0.79000000000000004:5] [1.02:5]
tree_sizes=1051 1114 1115 1104 1120 1118 1023 1118 1214 1200 1201 1201 1110 1172 1220 1174 1034 1123 1016 1209 1128 1236 1113 1125 1132 1108 1138 1199 1043 1134 1013 1280 1139 1197 1125 1027 1218 1144 1227 1129 1026 1141 1240 1045 1111 1157 1233 926 1042 1239 1211 1206 1045 1129 1046 1126 1244 1269 1220 1245 1022 1061 1229 1040 1152 1219 1226 1141 1156 1142 1153 1154 1108 1157 1156 1156 1140 1151 1055 1158 1152 1157 1138 1127 1174 1151 1155 1057 1254 1124 1263 1227 1326 1135 1235 1059 1156 1140 1247 1061 1158 1118 1229 1127 1163 1162 1111 1154 1164 1159 1248 1144 1067 1165 1238 1264 1262 1278 1153 1158 1131 1315 1061 1159 1260 1239 1068 1258 1165 1065 1251 1147 1267 1241 1065 1136 1166 1274 1241 1268 1232 1069 1238 1150 1263 1142 1148 1261 1175 1244 1057 1253 1231 1268 1153 1277 1167 1235 1165 1153 1130 1070 1138 1158 1357 1172 1274 1345 1152 1068 1073 1160 1173 1159 1177 981 1157 1276 1177 1277 1174 1262 1251 1151 1174 1249 1262 1141 1181 1264 1260 1178 1158 1254 1176 1281 1057 1260 1162 1269 1277 1155 1071 1262 1280 1057 1173 1062 1245 1062 1153 1174 1075 1266 1177 1363 1053 1263 1159 1062 1064 1161 1182 1159 1176 1058 1162 1142 1173 1240 1278 1067 1174 1164 1275 1262 1190 1255 1174 1179 1070 1154 1067 1265 1160 1283 1285 1284 1284 1234 1182 1282 1184 1147 1186 1145 1261 1183 1186 1159 1188 1180 1269 1289 1269 1189 1072 1271 1185 1066 1270 1272 1186 1281 1189 1275 1079 1186 1372 1169 1290 1188 1357 1286 1189 1184 1086 1169 1256 1168 1157 1180 1252 1172 1163 1271 1283 1288 1189 1258 1195 1243 1172 1165 1215 1255 1170 1189 1171 1254 1184 1173 1174 1287 1188 1267 1171 1241 1088 1195 1271 1185 1188 1176 1188 1293 1161 1177 1174 1186 1281 1193 1167 1179 1276 1302 1197 1345 1356 1191 1069 1175 1290 1182 1147 1295 1280 1173 1277 1179 1272 1265 1275 1279 1279 1376 1283 1178 1172 1192 1176 1275 1274 1078 1262 1177 1088 1277 1089 1295 1288 1274 1173 1171 1181 1157 1280 1089 1082 1191 1090 1296 1190 1290 1174 1192 1274 1174 1075 1280 1193 1174 1257 982 1194 1077 1173 1178 1276 1077 1154 1176 1172 1281 1290 1191 1152 1199 1087 1188 1273 1278 1186 1278 1278 1260 1181 1276 1294 1173 1178 1198 1072 1287 1178 1193 1090 1279 1279 1273 1090 1277 1191 1196 1192 1276 1380 1279 1195 1159 1188 1174 1194 1070 1195 1310 1194 1193 1296 1194 1178 1279 1258 1190 1176 1194 1195 1266 1194 1173 1288 1191 1175 1182 1187 1301 1197 1179 1045 1267 1177 1155 1281 1194 1190 1278 1193 1281 1192 1279 1193 1158 1180 1188 1264 1175 1278 1193 1072 1141 1179 1211 1160 1177 1282 1294 1273 1281 1279 1200

Tree=0
num_leaves=10
num_cat=1
split_feature=9 6 2 8 8 0 10 10 4
split_gain=19.6905 16.7159 15.5568 12.5 6.51972 6.10084 5.04935 4.97059 1.78571
threshold=3.3133333333333339 0.66500000000000015 0 1.3100000000000003 0.74500000000000011 0.012743846036667686 2.7390000000000003 3.3500000000000005 0.76333333333333353
decision_type=2 2 1 2 2 2 2 2 2
left_child=1 8 -2 5 -3 -4 -6 -7 -1
right_child=2 4 3 -5 6 7 -8 -9 -10
leaf_value=8.1076086942453571 7.9451086929148955 8.1460702330671424 8.1361801215395424 8.1826086970127143 8.28760869284039 7.9742753598713074 8.1894268797791518 8.0826086947775408 8.0361801223910376
leaf_weight=6.9999999999999982 8 12.999999999999998 7.0000000000000027 11.999999999999998 10.000000000000002 9.0000000000000018 10.999999999999998 7.9999999999999991 7
leaf_count=7 8 13 7 12 10 9 11 8 7
internal_value=8.11957 8.16386 8.07125 8.09928 8.20173 8.05761 8.23618 8.02526 8.07189
internal_weight=92 48 44 36 34 24 21 17 14
internal_count=92 48 44 36 34 24 21 17 14
cat_boundaries=0 1
cat_threshold=1
is_linear=0
shrinkage=1


Tree=1
num_leaves=10
num_cat=0
split_feature=7 11 8 9 11 9 10 8 5
split_gain=16.8793 9.74608 8.87687 10.5006 7.55176 5.77566 4.81959 4.54059 2.26336
threshold=2.1600000000000006 2.1112500000000005 0.74500000000000011 3.3600000000000008 3.3050000000000002 3.0950000000000002 2.7390000000000003 1.3100000000000003 1.8750000000000002
decision_type=2 2 2 2 2 2 2 2 2
left_child=1 -1 5 6 -2 -3 -4 8 -5
right_child=4 2 3 7 -6 -7 -8 -9 -10
leaf_value=-0.059179437475708821 -0.1539420834845967 0.021756613119082013 0.15697938637299969 0.017118593677878373 -0.015453510518584932 -0.09443957230874471 0.061057310104370127 0.07062801718711853 -0.060743863135576254
leaf_weight=12.999999999999998 8.9999999999999982 11.000000000000002 11.000000000000002 8.0000000000000018 6.9999999999999991 6.9999999999999991 9.9999999999999982 8.9999999999999982 6.9999999999999991
leaf_count=13 9 11 11 8 7 7 10 9 7
internal_value=-6.60024e-10 0.0196533 0.0359204 0.0596609 -0.0933533 -0.0234308 0.111302 0.0144747 -0.0192172
internal_weight=92 76 63 45 16 18 21 24 15
internal_count=92 76 63 45 16 18 21 24 15
is_linear=0
shrinkage=0.1


Tree=2
num_leaves=10
num_cat=0
split_feature=7 11 8 9 0 11 8 10 7
split_gain=14.0223 10.0735 7.36021 8.11729 7.11084 4.76321 4.11675 3.90387 2.22171
threshold=2.3000000000000003 2.1112500000000005 0.74500000000000011 3.3600000000000008 0.26261274222395126 2.6066666666666669 1.3100000000000003 2.7390000000000003 1.6950000000000001
decision_type=2 2 2 2 2 2 2 2 2
left_child=1 4 5 7 -1 -3 8 -4 -5
right_child=-2 2 3 6 -6 -7 -8 -9 -10
leaf_value=0.015682474098035269 -0.096240377884644734 -0.072529216441843222 0.1412814530459317 0.023847302368709009 -0.12232804633677007 0.030353787086076209 0.065537143349647525 0.054951582551002499 -0.053295445442199711
leaf_weight=6.9999999999999991 12.999999999999998 9.0000000000000018 11.000000000000002 7.0000000000000027 7.9999999999999991 8.9999999999999982 9.9999999999999982 9.9999999999999982 7.9999999999999991
leaf_count=7 13 9 11 7 8 9 10 10 8
internal_value=-3.60381e-10 0.015837 0.0331246 0.0543381 -0.0579231 -0.0210877 0.0158376 0.100172 -0.0172955
internal_weight=92 79 64 46 15 18 25 21 15
internal_count=92 79 64 46 15 18 25 21 15
is_linear=0
shrinkage=0.1


Tree=3
num_leaves=10
num_cat=1
split_feature=9 6 2 8 0 10 8 10 4
split_gain=11.6991 9.79948 9.6101 7.18641 4.62799 3.48257 3.31686 2.72811 1.49306
threshold=3.3133333333333339 0.66500000000000015 0 1.3100000000000003 0.012743846036667686 3.3500000000000005 0.74500000000000011 2.7390000000000003 0.76333333333333353
decision_type=2 2 1 2 2 2 2 2 2
left_child=1 8 -2 4 -4 -6 -3 -8 -1
right_child=2 6 3 -5 5 -7 7 -9 -10
leaf_value=-0.003614807128906251 -0.13638457022607325 0.023438364439285722 0.021625234186649314 0.04797094414631526 -0.11765872173839141 -0.026979439752176405 0.12551259234547613 0.053344629569487136 -0.068928478764636175
leaf_weight=6.9999999999999982 8 12.999999999999998 7.0000000000000027 11.999999999999998 9.0000000000000018 7.9999999999999991 10.000000000000002 10.999999999999998 7
leaf_count=7 8 13 7 12 9 8 10 11 7
internal_value=-2.30806e-10 0.0341419 -0.0372457 -0.0152149 -0.0468078 -0.0749861 0.0631358 0.0877103 -0.0362716
internal_weight=92 48 44 36 24 17 34 21 14
internal_count=92 48 44 36 24 17 34 21 14
cat_boundaries=0 1
cat_threshold=1
is_linear=0
shrinkage=0.1


Tree=4
num_leaves=10
num_cat=0
split_feature=1 8 9 11 10 7 4 12 11
split_gain=10.314 7.80373 8.81687 7.57103 5.32491 4.06011 3.22499 3.19283 2.98018
threshold=2.5000000000000004 1.3100000000000003 3.3600000000000008 2.2350000000000008 3.0091666666666668 1.6950000000000001 1.1291666666666667 1.9400000000000002 2.801333333333333
decision_type=2 2 2 2 2 2 2 2 2
left_child=5 2 3 -2 -4 6 -1 -5 -3
right_child=1 8 4 7 -6 -7 -8 -9 -10
leaf_value=0.12829635888338078 -0.074644109308719606 -0.013373835384845729 -0.13987510366873304 0.080978800915181615 -0.036157290471924675 -0.00096434497584899277 0.041034848491350813 -0.0058464171985785169 0.066841409423134546
leaf_weight=8.0000000000000053 10.000000000000002 8.0000000000000018 11.000000000000002 8.0000000000000018 8.9999999999999982 8.9999999999999982 8.9999999999999982 8.9999999999999982 10.999999999999998
leaf_count=8 10 8 11 8 9 9 9 9 11
internal_value=3.05717e-10 -0.0210152 -0.0428781 -0.00560105 -0.0932021 0.0533464 0.0820991 0.0350125 0.0330666
internal_weight=92 66 47 27 20 26 17 17 19
internal_count=92 66 47 27 20 26 17 17 19
is_linear=0
shrinkage=0.1


Tree=5
num_leaves=10
num_cat=0
split_feature=7 11 8 0 10 7 9 8 0
split_gain=8.84593 5.76097 5.46114 5.21927 4.79484 4.74547 3.34857 3.03699 1.08354
threshold=2.3000000000000003 2.1112500000000005 0.74500000000000011 0.26261274222395126 2.5650000000000004 1.6950000000000001 3.0950000000000002 1.2290000000000003 0.30419902310840324
decision_type=2 2 2 2 2 2 2 2 2
left_child=1 3 6 -1 5 -4 -3 -6 -9
right_child=-2 2 4 -5 7 -7 -8 8 -10
leaf_value=0.019858860118048535 -0.07643985077738763 0.013361498239365489 0.12515189322558315 -0.098378960415720945 -0.022903047061779275 0.019827126605170116 -0.075113497461591461 0.023408500254154196 0.074706218072346273
leaf_weight=6.9999999999999991 12.999999999999998 11.000000000000002 11.000000000000002 7.9999999999999991 11.000000000000002 6.9999999999999991 6.9999999999999991 10.000000000000002 6.9999999999999991
leaf_count=7 13 11 11 8 11 7 7 10 7
internal_value=-1.21477e-11 0.0125787 0.0256522 -0.0432013 0.0439251 0.0841923 -0.0210454 0.0180391 0.0445311
internal_weight=92 79 64 15 46 18 18 28 17
internal_count=92 79 64 15 46 18 18 28 17
is_linear=0
shrinkage=0.1


Tree=6
num_leaves=9
num_cat=0
split_feature=0 11 8 7 7 9 10 8
split_gain=7.61237 8.57711 9.00193 5.22508 3.91589 3.89408 2.63584 2.22292
threshold=0.044184069141582218 2.1112500000000005 0.9301666666666667 1.6950000000000001 1.8337500000000002 3.3133333333333339 2.7390000000000003 1.3100000000000003
decision_type=2 2 2 2 2 2 2 2
left_child=5 -2 3 -3 -4 6 -1 -6
right_child=1 2 4 -5 7 -7 -8 -9
leaf_value=0.11525188982486714 -0.091535659707509556 -0.00218443890603689 0.088720971941947904 -0.09582928690043363 -0.033362203543739644 -0.0028720745308832688 0.036362582445144655 0.04011236056685448
leaf_weight=8.0000000000000053 12.999999999999998 13.000000000000002 10.000000000000002 10.999999999999998 7.0000000000000027 10.999999999999998 8.9999999999999982 9.9999999999999982
leaf_count=8 13 13 10 11 7 11 9 10
internal_value=3.44184e-11 -0.0190263 -0.000543568 -0.045105 0.0390666 0.0434888 0.073487 0.00985813
internal_weight=92 64 51 24 27 28 17 17
internal_count=92 64 51 24 27 28 17 17
is_linear=0
shrinkage=0.1


Tree=7
num_leaves=10
num_cat=0
split_feature=7 5 0 11 8 5 11 10 4
split_gain=6.33971 4.72847 3.53482 5.40341 3.73835 3.17405 2.97875 2.13813 1.10756
threshold=2.5466666666666673 1.3700000000000003 0.17805820368359684 2.1112500000000005 0.9301666666666667 2.6908333333333334 2.6066666666666669 2.7390000000000003 0.79500000000000015
decision_type=2 2 2 2 2 2 2 2 2
left_child=1 6 5 -4 -5 7 -1 -3 -6
right_child=-2 2 3 4 8 -7 -8 -9 -10
leaf_value=-0.077656908830006921 -0.075170524120330817 0.10183347165584561 -0.080137684515544358 -0.03327020348774061 0.025078518837690345 0.0056656511070636607 0.0093205840459891741 0.036440357044339178 0.0769417200769697
leaf_weight=8.9999999999999982 9.9999999999999982 10.000000000000002 6.9999999999999991 9.0000000000000018 10.000000000000002 12.999999999999998 6.9999999999999991 9.9999999999999982 6.9999999999999991
leaf_count=9 10 10 7 9 10 13 7 10 7
internal_value=2.71298e-10 0.00916714 0.0209905 -0.00215207 0.0188441 0.0441331 -0.0396043 0.0691369 0.046434
internal_weight=92 82 66 33 26 33 16 20 17
internal_count=92 82 66 33 26 33 16 20 17
is_linear=0
shrinkage=0.1


Tree=8
num_leaves=11
num_cat=1
split_feature=9 1 2 6 8 8 3 10 0 0
split_gain=5.50159 4.86213 4.22576 3.87097 4.28316 2.98391 2.37172 2.11094 1.54378 1.05522
threshold=3.3133333333333339 3.5000000000000004 0 0.66500000000000015 0.9301666666666667 1.3100000000000003 2.0260000000000002 3.3500000000000005 0.063186296769755637 0.025579991162715501
decision_type=2 2 1 2 2 2 2 2 2 2
left_child=1 6 -2 -3 -5 7 9 8 -4 -1
right_child=2 3 5 4 -6 -7 -8 -9 -10 -11
leaf_value=0.057953536510467508 -0.09128177575767038 -0.064475576579570745 -0.019966505308236387 -0.027444646921422733 0.073118831589818009 0.029782757163047791 0.10056588836014271 0.0069974424524439707 -0.08427143469452858 0.0047887913882732397
leaf_weight=8.0000000000000018 8 8.0000000000000018 7.0000000000000027 9.0000000000000018 7.9999999999999991 11.999999999999998 7.9999999999999991 8.9999999999999982 7.9999999999999991 6.9999999999999991
leaf_count=8 8 8 7 9 8 12 8 9 8 7
internal_value=4.04923e-11 0.0234129 -0.0255414 -0.00711423 0.0198793 -0.0109324 0.0565946 -0.03129 -0.0542625 0.0331433
internal_weight=92 48 44 25 17 36 23 24 15 15
internal_count=92 48 44 25 17 36 23 24 15 15
cat_boundaries=0 1
cat_threshold=1
is_linear=0
shrinkage=0.1


Tree=9
num_leaves=11
num_cat=1
split_feature=1 7 11 4 12 5 10 7 2 4
split_gain=4.49591 3.32878 3.19105 3.08714 3.55903 2.86615 1.81605 1.26428 1.03733 0.166324
threshold=2.5000000000000004 2.1325000000000007 2.1112500000000005 0.74500000000000011 1.9400000000000002 2.6908333333333334 3.0091666666666668 1.2850000000000004 0 0.84583333333333355
decision_type=2 2 2 2 2 2 2 2 1 2
left_child=5 2 -2 4 -4 8 -3 -5 -1 -9
right_child=1 6 3 7 -6 -7 -8 9 -10 -11
leaf_value=0.088903373479843131 -0.05169640958309174 -0.087265538889914757 0.030462225526571265 0.0048771656118333324 -0.059024131111800673 -0.010410736459824774 -0.01988511122763157 0.043811266337122241 0.038711537881754313 0.065610608884266439
leaf_weight=7 9.9999999999999982 7.9999999999999991 8.0000000000000018 8.0000000000000018 9.9999999999999982 8.9999999999999982 7.9999999999999991 6.9999999999999982 10.000000000000005 7
leaf_count=7 10 8 8 8 10 9 8 7 10 7
internal_value=1.39192e-10 -0.0138749 -0.00117074 0.0114607 -0.0192524 0.0352209 -0.0535753 0.0365896 0.0593788 0.0547109
internal_weight=92 66 50 40 18 26 16 22 17 14
internal_count=92 66 50 40 18 26 16 22 17 14
cat_boundaries=0 1
cat_threshold=2
is_linear=0
shrinkage=0.1


Tree=10
num_leaves=11
num_cat=0
split_feature=9 11 6 1 6 8 3 4 9 0
split_gain=4.18164 3.50151 3.86519 3.38067 2.70528 3.12303 1.79917 1.73464 1.05367 0.857294
threshold=3.3133333333333339 3.2300000000000009 1.175 3.5000000000000004 0.66500000000000015 0.9301666666666667 2.0260000000000002 0.77500000000000013 3.8874999999999997 0.025579991162715501
decision_type=2 2 2 2 2 2 2 2 2 2
left_child=3 2 7 6 -5 -6 9 -2 -3 -1
right_child=1 8 -4 4 5 -7 -8 -9 -10 -11
leaf_value=0.050017790123820287 -0.047586566023528537 -0.014047556849462645 -0.089780861139297494 -0.052996133267879469 -0.022886883819268802 0.062984119728207597 0.086378284916281703 0.016410870684517753 0.037682422167725035 0.002097818042550768
leaf_weight=8.0000000000000018 8.0000000000000053 6.9999999999999991 10.999999999999998 8.0000000000000018 9.0000000000000018 7.9999999999999991 7.9999999999999991 8.9999999999999982 8.9999999999999982 6.9999999999999991
leaf_count=8 8 7 11 8 9 8 8 9 9 7
internal_value=1.01231e-11 -0.0222676 -0.0435923 0.020412 -0.00504312 0.017523 0.0480806 -0.0137056 0.0150506 0.0276551
internal_weight=92 44 28 48 25 17 23 17 16 15
internal_count=92 44 28 48 25 17 23 17 16 15
is_linear=0
shrinkage=0.1


Tree=11
num_leaves=11
num_cat=0
split_feature=9 11 6 1 6 8 3 4 9 0
split_gain=3.38713 2.83622 3.1308 2.73835 2.19128 2.52966 1.45733 1.40506 0.853474 0.694408
threshold=3.3133333333333339 3.2300000000000009 1.175 3.5000000000000004 0.66500000000000015 0.9301666666666667 2.0260000000000002 0.77500000000000013 3.8874999999999997 0.025579991162715501
decision_type=2 2 2 2 2 2 2 2 2 2
left_child=3 2 7 6 -5 -6 9 -2 -3 -1
right_child=1 8 -4 4 5 -7 -8 -9 -10 -11
leaf_value=0.045016010105609877 -0.042827908322215044 -0.01264280030237777 -0.080802775783972311 -0.047696520760655385 -0.020598194732641174 0.056685708649456504 0.077740456536412247 0.014769783947202894 0.033914179934395682 0.001888036515031542
leaf_weight=8.0000000000000018 8.0000000000000053 6.9999999999999991 10.999999999999998 8.0000000000000018 9.0000000000000018 7.9999999999999991 7.9999999999999991 8.9999999999999982 8.9999999999999982 6.9999999999999991
leaf_count=8 8 7 11 8 9 8 8 9 9 7
internal_value=1.29069e-10 -0.0200409 -0.0392331 0.0183708 -0.00453881 0.0157707 0.0432725 -0.012335 0.0135455 0.0248896
internal_weight=92 44 28 48 25 17 23 17 16 15
internal_count=92 44 28 48 25 17 23 17 16 15
is_linear=0
shrinkage=0.1


Tree=12
num_leaves=10
num_cat=0
split_feature=9 6 11 6 10 1 4 11 12
split_gain=2.74358 2.33738 2.29734 2.53595 1.33881 2.79994 1.1381 0.814043 0.765301
threshold=3.3133333333333339 0.65250000000000019 3.2300000000000009 1.175 3.4700000000000002 2.5000000000000004 0.77500000000000013 2.6066666666666669 3.1200000000000006
decision_type=2 2 2 2 2 2 2 2 2
left_child=1 -1 3 6 5 -3 -2 -7 -4
right_child=2 4 8 -5 -6 7 -8 -9 -10
leaf_value=-0.023937706513838336 -0.038545119203627076 0.085296578208605422 -0.0070969017429484268 -0.072722496498714803 -0.0049860586722691863 -0.006685382779687641 0.01329280568493737 0.035238282585685905 0.036989619263580874
leaf_weight=10.999999999999998 8.0000000000000053 9.0000000000000018 8.9999999999999982 10.999999999999998 8.9999999999999982 8.0000000000000018 8.9999999999999982 10.999999999999998 6.9999999999999991
leaf_count=11 8 9 9 11 9 8 9 11 7
internal_value=6.07384e-11 0.0165337 -0.0180368 -0.0353098 0.0285657 0.0393503 -0.0111015 0.0175862 0.012191
internal_weight=92 48 44 28 37 28 17 19 16
internal_count=92 48 44 28 37 28 17 19 16
is_linear=0
shrinkage=0.1


Tree=13
num_leaves=11
num_cat=0
split_feature=7 5 12 3 0 8 0 5 8 1
split_gain=2.36747 1.70604 1.64788 1.13286 0.97882 1.84594 1.3309 0.987379 0.622718 0.340883
threshold=2.3000000000000003 1.3700000000000003 1.8200000000000003 1.425 0.19603150857342982 1.0816666666666668 0.30419902310840324 2.2600000000000002 0.50500000000000012 5.5000000000000009
decision_type=2 2 2 2 2 2 2 2 2 2
left_child=1 8 -3 -4 5 -5 -6 -7 -1 -8
right_child=-2 2 3 4 6 7 9 -9 -10 -11
leaf_value=-0.046247397150312161 -0.039544844634544392 0.055828365683555606 -0.025195099910100299 0.060443999591516306 -0.031423213995165282 0.032405044351305277 0.002261891907879285 -0.019022245146334174 -0.0040669159165450499 0.033470071426459719
leaf_weight=6.9999999999999982 12.999999999999998 7.9999999999999991 8.9999999999999982 10.000000000000002 9.0000000000000018 6.9999999999999991 6.9999999999999982 7.9999999999999991 7 7
leaf_count=7 13 8 9 10 9 7 7 8 7 7
internal_value=1.86391e-10 0.00650738 0.0133274 0.00736239 0.0134669 0.0271639 -0.00142109 0.00497716 -0.0251572 0.017866
internal_weight=92 79 65 57 48 25 23 15 14 14
internal_count=92 79 65 57 48 25 23 15 14 14
is_linear=0
shrinkage=0.1


Tree=14
num_leaves=11
num_cat=0
split_feature=9 11 1 1 4 6 9 3 9 3
split_gain=2.08534 1.81803 1.83651 1.79159 1.87163 2.13347 1.39416 1.05876 0.674083 0.615217
threshold=3.3133333333333339 3.2300000000000009 3.5000000000000004 3.5000000000000004 0.61666666666666681 0.74500000000000011 4.1350000000000007 2.0260000000000002 3.8874999999999997 1.7383333333333337
decision_type=2 2 2 2 2 2 2 2 2 2
left_child=3 2 -2 7 -5 -6 -4 9 -3 -1
right_child=1 8 6 4 5 -7 -8 -9 -10 -11
leaf_value=0.040538225003651195 -0.065450775027275074 -0.012108717220170158 0.012890436314046377 -0.047992235847881842 -0.030210544807570308 0.040410434801808816 -0.043117147497832777 0.063935494050383568 0.029267092959748376 -5.6135654449462895e-05
leaf_weight=7.0000000000000027 10.000000000000002 6.9999999999999991 10.000000000000002 7.0000000000000027 7.0000000000000027 10.999999999999998 7.9999999999999991 7.9999999999999991 8.9999999999999982 7.9999999999999991
leaf_count=7 10 7 10 7 7 11 8 8 9 8
internal_value=1.02243e-10 -0.0157249 -0.0310907 0.0144145 -0.00411619 0.0129467 -0.0120018 0.0345566 0.0111652 0.0188879
internal_weight=92 44 28 48 25 18 18 23 16 15
internal_count=92 44 28 48 25 18 18 23 16 15
is_linear=0
shrinkage=0.1


Tree=15
num_leaves=11
num_cat=0
split_feature=7 5 12 3 0 8 0 5 8 1
split_gain=1.89949 1.38497 1.28543 0.944823 0.728346 1.40155 1.00542 0.746722 0.507697 0.264829
threshold=2.3000000000000003 1.3700000000000003 1.8200000000000003 1.425 0.19603150857342982 1.0816666666666668 0.30419902310840324 2.2600000000000002 0.50500000000000012 5.5000000000000009
decision_type=2 2 2 2 2 2 2 2 2 2
left_child=1 8 -3 -4 5 -5 -6 -7 -1 -8
right_child=-2 2 3 4 6 7 9 -9 -10 -11
leaf_value=-0.041744163206645424 -0.035421505720856103 0.049510753899812701 -0.023027496122651633 0.053094332367181765 -0.026639022885097386 0.028615299718720573 0.002447602578571865 -0.016107714921236038 -0.0036579025643212453 0.02995496754135404
leaf_weight=6.9999999999999982 12.999999999999998 7.9999999999999991 8.9999999999999982 10.000000000000002 9.0000000000000018 6.9999999999999991 6.9999999999999982 7.9999999999999991 7 7
leaf_count=7 13 8 9 10 9 7 7 8 7 7
internal_value=2.01449e-10 0.00582886 0.0119738 0.0067054 0.0122803 0.0240955 -0.000562314 0.00476303 -0.022701 0.0162013
internal_weight=92 79 65 57 48 25 23 15 14 14
internal_count=92 79 65 57 48 25 23 15 14 14
is_linear=0
shrinkage=0.1


Tree=16
num_leaves=9
num_cat=0
split_feature=0 11 4 12 10 1 12 3
split_gain=1.62722 1.92885 2.10351 2.29437 1.33599 1.30978 1.14489 0.398096
threshold=0.044184069141582218 2.1112500000000005 0.84583333333333355 1.9400000000000002 2.5650000000000004 4.5000000000000009 2.5233333333333339 2.1700000000000004
decision_type=2 2 2 2 2 2 2 2
left_child=4 -2 3 -3 -1 -5 -6 -7
right_child=1 2 -4 5 6 7 -8 -9
leaf_value=0.045329439950486015 -0.043181996047496798 0.035672940313816071 0.034690418882438769 -0.048493505555849803 -0.022401500989993415 -0.024617644705410502 0.0315211296081543 0.0064758402109146122
leaf_weight=12.000000000000002 12.999999999999998 7.9999999999999991 12.999999999999998 13.000000000000002 8.9999999999999982 7.0000000000000027 6.9999999999999991 9.9999999999999982
leaf_count=12 13 8 13 13 9 7 7 10
internal_value=1.52858e-10 -0.00879668 -3.17983e-05 -0.0119105 0.0201067 -0.0245994 0.00118965 -0.00632736
internal_weight=92 64 51 38 28 30 16 17
internal_count=92 64 51 38 28 30 16 17
is_linear=0
shrinkage=0.1


Tree=17
num_leaves=10
num_cat=0
split_feature=9 11 1 6 9 3 12 5 9
split_gain=1.41574 1.44021 1.57626 1.30135 1.06763 0.940991 1.72821 0.886386 0.543185
threshold=3.3133333333333339 3.2300000000000009 3.5000000000000004 0.65250000000000019 4.1350000000000007 1.8275000000000003 2.0862500000000006 1.5233333333333337 3.8874999999999997
decision_type=2 2 2 2 2 2 2 2 2
left_child=3 2 -2 -1 -4 7 -7 -5 -3
right_child=1 8 4 5 -6 6 -8 -9 -10
leaf_value=-0.018321337957273833 -0.058465476632118207 -0.009915432280727797 0.01283495537936687 0.016515225764702664 -0.036177012603729963 -0.034551482966967972 0.030233444357290862 0.058831628494792509 0.027226425417595443
leaf_weight=10.999999999999998 10.000000000000002 6.9999999999999991 10.000000000000002 11.000000000000002 7.9999999999999991 7.0000000000000027 9.9999999999999982 8.9999999999999982 8.9999999999999982
leaf_count=11 10 7 10 11 8 7 10 9 9
internal_value=-2.7636e-10 -0.0129566 -0.0266329 0.0118769 -0.00894814 0.0208548 0.0035573 0.0355576 0.0109769
internal_weight=92 44 28 48 18 37 17 20 16
internal_count=92 44 28 48 18 37 17 20 16
is_linear=0
shrinkage=0.1


Tree=18
num_leaves=9
num_cat=0
split_feature=11 0 8 11 3 3 9 3
split_gain=1.3714 2.16091 1.99088 1.52372 2.49847 1.15756 0.771154 0.956749
threshold=3.8150000000000004 1.0000000180025095e-35 1.0816666666666668 2.6066666666666669 1.9262500000000002 1.425 3.3600000000000008 2.2420000000000004
decision_type=2 2 2 2 2 2 2 2
left_child=1 2 -1 4 5 -3 -5 -8
right_child=-2 3 -4 6 -6 -7 7 -9
leaf_value=0.077322138420173103 -0.037077092917429076 -0.018494514247868205 0.0042967345565557485 0.030819042342213485 -0.052850077587824611 0.02757284760475159 -0.027253642259165635 0.017391940020024779
leaf_weight=6.9999999999999991 8.9999999999999982 12.000000000000002 7.9999999999999991 12.999999999999998 12.999999999999998 9.9999999999999982 8.0000000000000018 11.999999999999998
leaf_count=7 9 12 8 13 13 10 8 12
internal_value=-1.974e-11 0.00402041 0.0383753 -0.00355787 -0.018093 0.0024452 0.0118582 -0.000466293
internal_weight=92 83 15 68 35 22 33 20
internal_count=92 83 15 68 35 22 33 20
is_linear=0
shrinkage=0.1


Tree=19
num_leaves=11
num_cat=0
split_feature=11 0 8 11 3 6 8 9 6 0
split_gain=1.11083 1.75034 1.61261 1.23421 2.05244 0.957124 0.641114 1.18866 0.34 0.0723013
threshold=3.8150000000000004 1.0000000180025095e-35 1.0816666666666668 2.6066666666666669 2.1040000000000005 0.71500000000000008 1.2290000000000003 3.8874999999999997 0.99500000000000011 0.2855642370799234
decision_type=2 2 2 2 2 2 2 2 2 2
left_child=1 2 -1 4 5 -3 7 8 -5 -7
right_child=-2 3 -4 6 -6 9 -8 -9 -10 -11
leaf_value=0.069589922417487418 -0.033369384581844012 -0.023518343120813363 0.0038670610636472704 0.032790376033101747 -0.052053006128831347 0.024174609993185322 0.03038417845964432 -0.033209675816552979 0.0026123323332285509 0.0098018879869154526
leaf_weight=6.9999999999999991 8.9999999999999982 10.000000000000002 7.9999999999999991 7.0000000000000027 10.999999999999998 6.9999999999999982 10.999999999999998 6.9999999999999991 7.9999999999999991 7
leaf_count=7 9 10 8 7 11 7 11 7 8 7
internal_value=-5.79546e-11 0.00361837 0.0345377 -0.00320208 -0.0162837 0.000110502 0.0106724 0.000816525 0.0166954 0.0169882
internal_weight=92 83 15 68 35 24 33 22 15 14
internal_count=92 83 15 68 35 24 33 22 15 14
is_linear=0
shrinkage=0.1


Tree=20
num_leaves=10
num_cat=0
split_feature=12 0 11 0 9 3 6 7 3
split_gain=0.912368 0.835349 1.66979 1.40569 1.21931 0.88676 1.28547 0.673068 0.480363
threshold=1.7250000000000003 0.044184069141582218 2.6066666666666669 0.37718821592566093 2.6175000000000006 2.0260000000000002 0.85625000000000007 2.1325000000000007 2.2950000000000004
decision_type=2 2 2 2 2 2 2 2 2
left_child=-1 5 3 4 -3 6 -2 8 -4
right_child=1 2 7 -5 -6 -7 -8 -9 -10
leaf_value=0.02702323387969624 0.019195305623791424 -0.02079094445539844 0.027781303009639172 0.007204102884445872 -0.074446648731827741 0.036321167089045051 -0.035622522128479821 -0.018002516438718887 -0.0027807541191577911
leaf_weight=10.999999999999998 11.000000000000005 9.0000000000000053 12.000000000000005 6.9999999999999991 7.9999999999999991 8.9999999999999982 6.9999999999999991 8.9999999999999982 8.9999999999999982
leaf_count=11 11 9 12 7 8 9 7 9 9
internal_value=1.60577e-10 -0.00366982 -0.0108507 -0.030511 -0.0460407 0.0106919 -0.00212274 0.00487754 0.0146833
internal_weight=92 81 54 24 17 27 18 30 21
internal_count=92 81 54 24 17 27 18 30 21
is_linear=0
shrinkage=0.1


Tree=21
num_leaves=11
num_cat=0
split_feature=11 0 5 11 12 9 8 9 10 6
split_gain=0.902756 1.22781 1.38593 0.852562 1.39225 0.898058 0.588326 0.817906 0.493871 0.250732
threshold=3.8150000000000004 1.0000000180025095e-35 2.2600000000000002 2.6066666666666669 1.7250000000000003 3.5141666666666667 1.2290000000000003 3.8874999999999997 1.5400000000000003 0.99500000000000011
decision_type=2 2 2 2 2 2 2 2 2 2
left_child=1 2 -1 4 -3 8 7 9 -6 -5
right_child=-2 3 -4 6 5 -7 -8 -9 -10 -11
leaf_value=0.061653501433985569 -0.030082156317722465 0.026566043921879362 0.00072464342229068286 0.026632869456495546 -0.027682784050703031 -0.051612032204866411 0.027963847802443938 -0.028585593468908755 0.0037455785274505618 0.00071756416000425818
leaf_weight=6.9999999999999991 8.9999999999999982 6.9999999999999991 7.9999999999999991 7.0000000000000027 10.000000000000005 7.9999999999999991 10.999999999999998 6.9999999999999991 9.9999999999999982 7.9999999999999991
leaf_count=7 9 7 8 7 10 8 11 7 10 8
internal_value=1.75635e-10 0.00326192 0.0291581 -0.00245047 -0.013323 -0.0232953 0.00908102 -0.000360389 -0.0119686 0.0128114
internal_weight=92 83 15 68 35 28 33 22 20 15
internal_count=92 83 15 68 35 28 33 22 20 15
is_linear=0
shrinkage=0.1


Tree=22
num_leaves=10
num_cat=0
split_feature=8 12 1 8 11 9 8 3 3
split_gain=0.799728 1.50634 0.72458 2.11251 1.01291 1.02422 0.50565 0.417109 0.39574
threshold=0.47666666666666668 1.7250000000000003 2.5000000000000004 1.0816666666666668 2.6066666666666669 2.6175000000000006 1.3900000000000003 2.1533333333333338 2.2950000000000004
decision_type=2 2 2 2 2 2 2 2 2
left_child=-1 -2 3 -3 5 -4 7 -6 -9
right_child=1 2 4 -5 6 -7 -8 8 -10
leaf_value=-0.02669833838939667 0.047620404192379548 0.055219186795875411 -0.0015772402441749966 -0.011121319048106671 -0.020843528211116773 -0.042893449589610104 0.026783982710912826 0.022624855954200034 -0.0099330433777400431
leaf_weight=9.9999999999999982 6.9999999999999991 8.0000000000000018 12.000000000000002 11.999999999999998 8.0000000000000053 11.999999999999998 7.9999999999999991 7.9999999999999982 7
leaf_count=10 7 8 12 12 8 12 8 8 7
internal_value=1.43748e-10 0.0032559 -0.000884792 0.0154149 -0.00681195 -0.0222353 0.00512875 -0.00240351 0.00743117
internal_weight=92 82 75 20 55 24 31 23 15
internal_count=92 82 75 20 55 24 31 23 15
is_linear=0
shrinkage=0.1


Tree=23
num_leaves=10
num_cat=0
split_feature=11 9 6 1 9 0 12 9 1
split_gain=0.699733 0.878532 1.16197 1.07914 1.08075 0.72851 0.617566 0.465736 0.3941
threshold=3.8150000000000004 3.3133333333333339 0.65250000000000019 3.5000000000000004 3.8874999999999997 0.012743846036667686 3.1200000000000006 2.4466666666666668 4.5000000000000009
decision_type=2 2 2 2 2 2 2 2 2
left_child=1 2 -1 -3 -5 -4 -6 -7 -9
right_child=-2 3 5 4 6 7 -8 8 -10
leaf_value=-0.0174069610144943 -0.026484399889078403 -0.03158061653375626 0.045767481625080111 0.034288381226360784 -0.028408527705404488 -0.0092987605503627186 0.0086369652301073081 0.032903634993867434 0.0025511770376137328
leaf_weight=9.9999999999999982 8.9999999999999982 12.999999999999998 8.9999999999999982 8.0000000000000018 9.0000000000000018 7.0000000000000027 8.9999999999999982 11.000000000000002 6.9999999999999991
leaf_count=10 9 13 9 8 9 7 9 11 7
internal_value=-1.72092e-11 0.0028718 0.0125578 -0.00805603 0.00370627 0.021371 -0.00988578 0.0125883 0.0210999
internal_weight=92 83 44 39 26 34 18 25 18
internal_count=92 83 44 39 26 34 18 25 18
is_linear=0
shrinkage=0.1


Tree=24
num_leaves=10
num_cat=0
split_feature=8 12 1 8 11 0 9 8 9
split_gain=0.589593 1.18692 0.541413 1.70521 0.763332 0.891549 1.08048 0.44133 0.399296
threshold=0.47666666666666668 1.7250000000000003 2.5000000000000004 1.0816666666666668 2.6066666666666669 0.37718821592566093 2.6175000000000006 1.3100000000000003 3.8874999999999997
decision_type=2 2 2 2 2 2 2 2 2
left_child=-1 -2 3 -3 5 6 -4 8 -6
right_child=1 2 4 -5 7 -7 -8 -9 -10
leaf_value=-0.022923927307128906 0.042176487403256552 0.048971553007140733 -0.0050203203281853313 -0.010631538803378741 0.005881880707322402 0.010643489712050983 -0.05552917387750414 0.020450921898538418 -0.023741995516632284
leaf_weight=9.9999999999999982 6.9999999999999991 8.0000000000000018 8.0000000000000053 11.999999999999998 13.000000000000005 6.9999999999999991 8.9999999999999982 10.999999999999998 6.9999999999999991
leaf_count=10 7 8 8 12 13 7 9 11 7
internal_value=2.07523e-10 0.0027956 -0.000879948 0.0132097 -0.00600346 -0.0193925 -0.0317603 0.00436228 -0.00448648
internal_weight=92 82 75 20 55 24 17 31 20
internal_count=92 82 75 20 55 24 17 31 20
is_linear=0
shrinkage=0.1


Tree=25
num_leaves=10
num_cat=0
split_feature=11 0 9 11 12 8 6 7 4
split_gain=0.553611 0.731175 0.926552 0.836565 0.914067 0.862153 0.745736 0.633807 0.0874094
threshold=3.8150000000000004 0.025579991162715501 3.0950000000000002 1.925 1.7250000000000003 1.2290000000000003 0.85625000000000007 1.9545000000000006 1.1291666666666667
decision_type=2 2 2 2 2 2 2 2 2
left_child=1 2 -1 -3 -5 6 -6 -8 -7
right_child=-2 3 -4 4 5 8 7 -9 -10
leaf_value=0.042847780552175294 -0.023557328225837816 -0.035608364854540143 0.0011077076769792117 0.034846734787736623 -0.042009253480604719 0.0087545944843441265 0.0090318343202982609 -0.023044762369351126 0.024055981310084462
leaf_weight=9.0000000000000018 8.9999999999999982 6.9999999999999991 12.999999999999998 6.9999999999999991 6.9999999999999991 7.9999999999999982 14.000000000000002 10.999999999999998 7
leaf_count=9 9 7 13 7 7 8 14 11 7
internal_value=5.83975e-11 0.00255441 0.0181832 -0.0030822 0.00113415 -0.00388687 -0.0131597 -0.00508187 0.0158952
internal_weight=92 83 22 61 54 47 32 25 15
internal_count=92 83 22 61 54 47 32 25 15
is_linear=0
shrinkage=0.1


Tree=26
num_leaves=10
num_cat=0
split_feature=8 12 10 9 12 4 1 10 1
split_gain=0.473473 0.826449 0.464424 0.600502 1.91084 0.525162 0.511221 0.350501 0.315757
threshold=0.47666666666666668 1.7250000000000003 4.9050000000000002 2.6175000000000006 2.5233333333333339 0.84583333333333355 3.5000000000000004 2.8650000000000007 3.5000000000000004
decision_type=2 2 2 2 2 2 2 2 2
left_child=-1 -2 3 6 -5 7 -3 -6 -7
right_child=1 2 -4 4 5 8 -8 -9 -10
leaf_value=-0.020542855411767962 0.035366365739277435 0.028907129251294655 0.022211119486019018 -0.057656353658863485 -0.028083591256290664 -0.0015988365643554256 -0.0032296179539778019 -0.001844616872923715 0.024890450057056215
leaf_weight=9.9999999999999982 6.9999999999999991 9.0000000000000018 7.9999999999999991 6.9999999999999991 8.0000000000000018 9.0000000000000018 10.999999999999998 13.999999999999998 8.9999999999999982
leaf_count=10 7 9 8 7 8 9 11 14 9
internal_value=7.896e-11 0.00250523 -0.000561813 -0.00328097 -0.00945667 -0.00102172 0.0112319 -0.0113861 0.0116458
internal_weight=92 82 75 67 47 40 20 22 18
internal_count=92 82 75 67 47 40 20 22 18
is_linear=0
shrinkage=0.1


Tree=27
num_leaves=11
num_cat=0
split_feature=11 0 11 4 9 12 8 6 7 4
split_gain=0.4578 0.60711 0.695096 0.690687 0.671323 0.648351 0.624278 0.615686 0.445544 0.0736882
threshold=3.8150000000000004 0.025579991162715501 1.925 0.77500000000000013 3.2590000000000008 1.7250000000000003 1.2290000000000003 0.85625000000000007 1.9545000000000006 1.1291666666666667
decision_type=2 2 2 2 2 2 2 2 2 2
left_child=1 3 -3 -1 -5 -4 7 -7 -9 -8
right_child=-2 2 5 4 -6 6 9 8 -10 -11
leaf_value=0.04250149301120211 -0.02142208620078034 -0.032461998718125482 0.029422831535339356 0.027076047675551048 -0.015328987594693901 -0.037302830868533685 0.0070783444214612265 0.008083847244935374 -0.018810119767757982 0.021127511960055148
leaf_weight=7.0000000000000027 8.9999999999999982 6.9999999999999991 6.9999999999999991 6.9999999999999991 7.9999999999999991 6.9999999999999991 7.9999999999999982 14.000000000000002 10.999999999999998 7
leaf_count=7 9 7 7 7 8 7 8 14 11 7
internal_value=5.39054e-11 0.00232288 -0.00281331 0.0165641 0.00446003 0.00103003 -0.00319868 -0.0110893 -0.0037495 0.0136346
internal_weight=92 83 61 22 15 54 47 32 25 15
internal_count=92 83 61 22 15 54 47 32 25 15
is_linear=0
shrinkage=0.1


Tree=28
num_leaves=9
num_cat=0
split_feature=8 12 9 9 12 11 1 0
split_gain=0.40813 0.568672 0.424661 0.505376 0.840047 0.660902 0.389122 0.291608
threshold=0.47666666666666668 1.7250000000000003 4.4750000000000005 2.6175000000000006 2.5233333333333339 2.6575000000000002 3.5000000000000004 0.15827863143515294
decision_type=2 2 2 2 2 2 2 2
left_child=-1 -2 3 6 -5 -6 -3 -7
right_child=1 2 -4 4 5 7 -8 -9
leaf_value=-0.019072693586349488 0.029584677091666629 0.025051144634683921 0.017023104840579131 -0.036777162924408913 -0.025656240267886057 0.02034610071116023 -0.0029864042235369036 -0.0021542007103562354
leaf_weight=9.9999999999999982 6.9999999999999991 9.0000000000000018 11.999999999999998 8.9999999999999982 8.9999999999999982 9.0000000000000018 10.999999999999998 15.999999999999998
leaf_count=10 7 9 12 9 9 9 11 16
internal_value=-1.80191e-10 0.00232594 -0.000218211 -0.00350227 -0.00961053 -0.00241937 0.00963049 0.00594591
internal_weight=92 82 75 63 43 34 20 25
internal_count=92 82 75 63 43 34 20 25
is_linear=0
shrinkage=0.1


Tree=29
num_leaves=10
num_cat=0
split_feature=10 11 9 6 1 9 9 5 6
split_gain=0.377177 0.4351 0.421617 0.484397 0.546572 1.81363 1.13956 0.288573 0.28592
threshold=4.9050000000000002 3.6570000000000009 3.3600000000000008 0.65250000000000019 3.5000000000000004 3.1650000000000005 2.6175000000000006 2.1425000000000005 0.99500000000000011
decision_type=2 2 2 2 2 2 2 2 2
left_child=1 2 3 -1 5 -5 -6 -4 -9
right_child=-2 -3 7 4 6 -7 -8 8 -10
leaf_value=-0.013096295371651651 0.020747855096124115 -0.024158801604062322 0.0023516166167190438 0.023724207421764724 0.0031471623852848997 -0.040324723401239944 0.055754135229757855 -0.0019398819389087807 -0.02829093122854829
leaf_weight=9.9999999999999982 7.9999999999999991 7.9999999999999991 13.000000000000002 12.000000000000002 10.000000000000002 6.9999999999999991 6.9999999999999991 7.0000000000000027 9.9999999999999982
leaf_count=10 8 8 13 12 10 7 7 7 10
internal_value=1.01231e-12 -0.00197599 0.000359047 0.00637402 0.0117824 0.000127233 0.0248089 -0.00886392 -0.0174405
internal_weight=92 84 76 46 36 19 17 30 17
internal_count=92 84 76 46 36 19 17 30 17
is_linear=0
shrinkage=0.1


Tree=30
num_leaves=9
num_cat=0
split_feature=11 0 8 11 4 0 4 11
split_gain=0.335045 0.500444 0.651196 0.50784 0.470025 0.234069 0.19738 0.205997
threshold=3.8150000000000004 0.025579991162715501 1.0816666666666668 1.925 1.1291666666666667 0.15827863143515294 0.64000000000000012 2.6575000000000002
decision_type=2 2 2 2 2 2 2 2
left_child=1 2 -1 -3 5 -5 -7 -8
right_child=-2 3 -4 4 -6 6 7 -9
leaf_value=0.032121614823964501 -0.018326325649912985 -0.028018333443573545 -0.0022875917440449648 -0.01774510070681572 0.022980721946805716 0.012237951708957555 -0.015597116127610201 0.0024907531490659016
leaf_weight=11.000000000000002 8.9999999999999982 6.9999999999999991 10.999999999999998 8.9999999999999982 7.9999999999999991 9.9999999999999982 10.000000000000002 17
leaf_count=11 9 7 11 9 8 10 10 17
internal_value=1.90061e-10 0.00198719 0.014917 -0.00267602 0.000609093 -0.00328162 0.000236518 -0.00420846
internal_weight=92 83 22 61 54 46 37 27
internal_count=92 83 22 61 54 46 37 27
is_linear=0
shrinkage=0.1


Tree=31
num_leaves=12
num_cat=0
split_feature=8 1 8 10 0 9 7 5 0 6 4
split_gain=0.360469 0.471225 0.991469 0.590591 0.444757 0.442704 1.2354 0.318965 0.188264 0.179657 0.0862371
threshold=0.47666666666666668 2.5000000000000004 0.9930000000000001 2.8650000000000007 0.3561372093236842 2.6175000000000006 1.4720000000000002 2.3265000000000007 0.26261274222395126 0.74500000000000011 0.84583333333333355
decision_type=2 2 2 2 2 2 2 2 2 2 2
left_child=-1 2 -2 -4 5 9 -7 -6 10 -3 -8
right_child=1 4 3 -5 7 6 8 -9 -10 -11 -12
leaf_value=-0.01792450062930584 0.040222478378564103 -0.0042612874348248756 0.018219451819147383 -0.022858545842713542 -0.0013174858722777574 -0.051252677291631681 -0.0037591004278510797 0.027912116263593946 -0.015662272123154252 0.018394985475710456 0.011439323744603568
leaf_weight=9.9999999999999982 9.0000000000000018 6.9999999999999982 6.9999999999999982 7 7.9999999999999982 7.0000000000000027 8.0000000000000018 7 7.9999999999999991 7 6.9999999999999991
leaf_count=10 9 7 7 7 8 7 8 7 8 7 7
internal_value=-1.23375e-11 0.00218591 0.0143273 -0.00231955 -0.00254718 -0.00761656 -0.0144688 0.012323 -0.00327373 0.00706685 0.0033335
internal_weight=92 82 23 14 59 44 30 15 23 14 15
internal_count=92 82 23 14 59 44 30 15 23 14 15
is_linear=0
shrinkage=0.1


Tree=32
num_leaves=10
num_cat=0
split_feature=10 11 9 6 1 9 5 5 6
split_gain=0.333241 0.289245 0.315339 0.339258 0.482859 1.4808 1.02773 0.201618 0.194662
threshold=4.9050000000000002 3.6570000000000009 3.3600000000000008 0.65250000000000019 3.5000000000000004 3.1650000000000005 1.6600000000000001 2.1425000000000005 0.99500000000000011
decision_type=2 2 2 2 2 2 2 2 2
left_child=1 2 3 -1 5 -5 -6 -4 -9
right_child=-2 -3 7 4 6 -7 -8 8 -10
leaf_value=-0.011045947782695294 0.019502048706635834 -0.019943863758817317 0.0014449321808150178 0.020141885305444394 0.0014469136204570527 -0.037732389356408803 0.051405992252486092 -0.0023087427286165091 -0.024051591735333208
leaf_weight=9.9999999999999982 7.9999999999999991 7.9999999999999991 13.000000000000002 12.000000000000002 10.000000000000002 6.9999999999999991 6.9999999999999991 7.0000000000000027 9.9999999999999982
leaf_count=10 8 8 13 12 10 7 7 7 10
internal_value=-1.76141e-10 -0.00185734 4.65066e-05 0.00524842 0.00977464 -0.00118022 0.0220183 -0.00792977 -0.0150987
internal_weight=92 84 76 46 36 19 17 30 17
internal_count=92 84 76 46 36 19 17 30 17
is_linear=0
shrinkage=0.1


Tree=33
num_leaves=11
num_cat=0
split_feature=8 1 8 10 0 5 11 4 5 9
split_gain=0.277655 0.413581 0.795667 0.528713 0.371274 0.350146 0.472561 0.456947 0.271631 0.164408
threshold=0.47666666666666668 2.5000000000000004 0.9930000000000001 2.8650000000000007 0.3561372093236842 1.2266666666666668 2.2350000000000008 0.70650000000000002 2.3265000000000007 3.8874999999999997
decision_type=2 2 2 2 2 2 2 2 2 2
left_child=-1 2 -2 -4 5 -3 -7 -8 -6 -9
right_child=1 4 3 -5 8 6 7 9 -10 -11
leaf_value=-0.015731331203132869 0.036490716702408249 0.010444415158902605 0.017813511192798618 -0.021053028339520094 -0.0015171202676810937 -0.033017767360433936 -0.02539460025727748 0.015274850811277111 0.025456610321998592 -0.0040092153998557483
leaf_weight=9.9999999999999982 9.0000000000000018 8.9999999999999982 6.9999999999999982 7 7.9999999999999982 7.9999999999999991 8.0000000000000018 7.0000000000000027 7 11.999999999999998
leaf_count=10 9 9 7 7 8 8 8 7 7 12
internal_value=-5.71202e-11 0.00191845 0.013293 -0.00161976 -0.0025157 -0.00714741 -0.011671 -0.00534605 0.0110706 0.00309544
internal_weight=92 82 23 14 59 44 35 27 15 19
internal_count=92 82 23 14 59 44 35 27 15 19
is_linear=0
shrinkage=0.1


Tree=34
num_leaves=10
num_cat=1
split_feature=10 6 1 2 4 1 1 11 1
split_gain=0.275759 0.249073 1.10362 0.575028 0.442156 0.279094 0.262088 0.466609 0.626593
threshold=4.9050000000000002 1.175 3.5000000000000004 0 0.76333333333333353 4.5000000000000009 4.5000000000000009 2.6575000000000002 2.5000000000000004
decision_type=2 2 2 1 2 2 2 2 2
left_child=1 3 -3 4 -1 -6 7 8 -5
right_child=-2 2 -4 6 5 -7 -8 -9 -10
leaf_value=-0.028437687309148404 0.017740495468024167 -0.040344278700649723 0.0068623296916484836 0.0056583705171942677 -0.01414723460163389 0.014091236807871608 -0.0044442630224776547 -0.0038004693284165118 0.042028780157367392
leaf_weight=9.0000000000000018 7.9999999999999991 8.0000000000000018 12.999999999999998 10.000000000000005 6.9999999999999982 7 10.999999999999998 9.9999999999999982 8.9999999999999982
leaf_count=9 8 8 13 10 7 7 11 10 9
internal_value=-1.10341e-10 -0.00168957 -0.0111211 0.00145429 -0.0111448 -2.79989e-05 0.00869878 0.0136841 0.0228865
internal_weight=92 84 21 63 23 14 40 29 19
internal_count=92 84 21 63 23 14 40 29 19
cat_boundaries=0 1
cat_threshold=4
is_linear=0
shrinkage=0.1


Tree=35
num_leaves=9
num_cat=0
split_feature=8 12 9 9 12 11 1 4
split_gain=0.243962 0.381981 0.246302 0.211363 0.636673 0.342564 0.239982 0.203095
threshold=0.47666666666666668 1.7250000000000003 4.4750000000000005 2.6175000000000006 2.5233333333333339 2.6575000000000002 3.5000000000000004 0.70650000000000002
decision_type=2 2 2 2 2 2 2 2
left_child=-1 -2 3 6 -5 -6 -3 -7
right_child=1 2 -4 4 5 7 -8 -9
leaf_value=-0.014745993167161943 0.024138925863163813 0.017815306865506694 0.012843724006476501 -0.030388743802905085 -0.017207080539729861 -0.0075940176378935555 -0.004203163282099096 0.011727904210634091
leaf_weight=9.9999999999999982 6.9999999999999991 9.0000000000000018 11.999999999999998 8.9999999999999982 8.9999999999999982 8.0000000000000018 10.999999999999998 17
leaf_count=10 7 9 12 9 9 8 11 17
internal_value=1.5792e-10 0.00179829 -0.000286834 -0.00278789 -0.00673814 -0.000477691 0.00570515 0.00554489
internal_weight=92 82 75 63 43 34 20 25
internal_count=92 82 75 63 43 34 20 25
is_linear=0
shrinkage=0.1


Tree=36
num_leaves=11
num_cat=0
split_feature=0 10 12 8 0 11 8 1 7 3
split_gain=0.23992 0.562898 0.467354 0.270303 0.240686 0.55523 0.234845 0.187048 0.124458 0.0239801
threshold=0.044184069141582218 2.4127500000000004 2.6150000000000007 0.50500000000000012 0.3561372093236842 2.1112500000000005 1.1775000000000002 3.5000000000000004 1.5200000000000002 2.2520000000000002
decision_type=2 2 2 2 2 2 2 2 2 2
left_child=1 -1 -3 -2 5 -5 -6 -7 -9 -10
right_child=3 2 -4 4 6 7 -8 8 9 -11
leaf_value=0.026743284054100504 -0.01944328910774655 -0.017259824587963515 0.015167724527418614 -0.026665668986323811 -0.0016506378538906578 0.01593139469623565 0.023430219532123632 -0.012830816674977536 0.006316662020981312 -0.0014260914758779109
leaf_weight=10.000000000000002 8.9999999999999982 10.000000000000002 7.9999999999999991 8.9999999999999982 7.9999999999999982 7.0000000000000027 7 8.0000000000000018 7.9999999999999991 7.9999999999999991
leaf_count=10 9 10 8 9 8 7 7 8 8 8
internal_value=-4.606e-11 0.00772059 -0.00284758 -0.00337776 -0.000748851 -0.00479983 0.0100538 0.00154832 -0.00264675 0.00244529
internal_weight=92 28 18 64 55 40 15 31 24 16
internal_count=92 28 18 64 55 40 15 31 24 16
is_linear=0
shrinkage=0.1


Tree=37
num_leaves=10
num_cat=0
split_feature=7 12 4 6 0 12 11 6 9
split_gain=0.22932 0.244439 0.323724 0.292616 0.519492 0.304337 0.199686 0.271783 0.088617
threshold=2.3000000000000003 2.9675000000000007 0.86250000000000016 0.91666666666666674 1.0000000180025095e-35 2.5233333333333339 2.6575000000000002 0.77000000000000013 2.6025000000000005
decision_type=2 2 2 2 2 2 2 2 2
left_child=1 3 -3 4 -1 -5 7 8 -6
right_child=-2 2 -4 5 6 -7 -8 -9 -10
leaf_value=0.024874243699014188 -0.012307473107312734 0.00077849177812988092 0.027216153405606749 -0.026204138342291107 -0.011333701461553566 -0.00057036202739585537 -0.01724916117798005 0.017058692919090391 0.0033364307534481798
leaf_weight=8.9999999999999982 12.999999999999998 11.000000000000002 7.9999999999999991 8.0000000000000018 10.000000000000005 10.999999999999998 6.9999999999999991 7.9999999999999991 6.9999999999999991
leaf_count=9 13 11 8 8 10 11 7 8 7
internal_value=6.98492e-11 0.00202528 0.0119101 -0.00110492 0.00364906 -0.0113635 -0.00232052 0.0018595 -0.00529306
internal_weight=92 79 19 60 41 19 32 25 17
internal_count=92 79 19 60 41 19 32 25 17
is_linear=0
shrinkage=0.1


Tree=38
num_leaves=11
num_cat=0
split_feature=10 7 1 9 3 1 5 5 10 1
split_gain=0.217206 0.198746 0.745514 0.516089 0.250757 0.652167 0.6261 0.374909 0.1894 0.0927751
threshold=4.9050000000000002 1.8337500000000002 3.5000000000000004 3.5141666666666667 2.0260000000000002 3.5000000000000004 2.6908333333333334 1.8750000000000002 2.8650000000000007 3.5000000000000004
decision_type=2 2 2 2 2 2 2 2 2 2
left_child=1 4 -3 -4 6 -6 7 9 -5 -1
right_child=-2 2 3 8 5 -7 -8 -9 -10 -11
leaf_value=-0.010636968340259036 0.015744793065823614 -0.032091039419174197 0.024510151520371427 -0.018947549490258092 0.035768631313528317 -0.0032768141308968722 -0.02711495263502002 0.024663608627659935 0.0021994329988956453 0.00381100969389081
leaf_weight=8.0000000000000053 7.9999999999999991 8.9999999999999982 7.0000000000000027 8.0000000000000018 7.0000000000000027 10.999999999999998 7.9999999999999991 6.9999999999999991 8.9999999999999982 9.9999999999999982
leaf_count=8 8 9 7 8 7 11 8 7 9 10
internal_value=5.16277e-11 -0.0014995 -0.00754648 0.00165773 0.00241324 0.0119075 -0.00276545 0.00502638 -0.00775209 -0.00261031
internal_weight=92 84 33 24 51 18 33 25 17 18
internal_count=92 84 33 24 51 18 33 25 17 18
is_linear=0
shrinkage=0.1


Tree=39
num_leaves=10
num_cat=0
split_feature=7 12 0 6 0 12 6 9 10
split_gain=0.19034 0.171884 0.295989 0.246237 0.462488 0.198946 0.176658 0.149809 0.0947496
threshold=2.3000000000000003 2.9675000000000007 0.3414041486180816 0.91666666666666674 1.0000000180025095e-35 2.5233333333333339 0.77000000000000013 2.1975000000000002 1.6150000000000004
decision_type=2 2 2 2 2 2 2 2 2
left_child=1 3 -3 4 -1 -5 7 -6 -8
right_child=-2 2 -4 5 6 -7 8 -9 -10
leaf_value=0.023608091463231382 -0.011212758963497785 0.00060138635647793591 0.026476043649017813 -0.022189221251755945 0.0028322022408246981 -0.0014637913216244093 -0.0018530577953372687 -0.01588150653988123 0.014600306642907006
leaf_weight=8.9999999999999982 12.999999999999998 12.000000000000002 6.9999999999999991 8.0000000000000018 7.0000000000000027 10.999999999999998 6.9999999999999982 10.999999999999998 7
leaf_count=9 13 12 7 8 7 11 7 11 7
internal_value=1.04268e-10 0.00184514 0.0101342 -0.000779718 0.00358128 -0.0101903 -0.00205126 -0.00860395 0.00637362
internal_weight=92 79 19 60 41 19 32 18 14
internal_count=92 79 19 60 41 19 32 18 14
is_linear=0
shrinkage=0.1


Tree=40
num_leaves=9
num_cat=0
split_feature=10 12 7 1 12 9 0 10
split_gain=0.17907 0.171826 0.268255 0.286798 0.820619 0.700377 0.176285 0.315284
threshold=4.9050000000000002 1.7250000000000003 2.1600000000000006 2.5000000000000004 1.9400000000000002 3.3133333333333339 0.37718821592566093 1.7100000000000002
decision_type=2 2 2 2 2 2 2 2
left_child=1 -1 3 5 -5 -3 7 -6
right_child=-2 2 -4 4 6 -7 -8 -9
leaf_value=0.010289674760265785 0.014295902568846941 0.0031365909685309107 -0.018332550898194314 0.035227900903139799 -0.024312083316700789 -0.036097198405436112 0.010899352008709685 0.0001938589493788424
leaf_weight=10.999999999999998 7.9999999999999991 13.000000000000002 9.9999999999999982 6.9999999999999991 7.0000000000000027 6.9999999999999991 7.9999999999999991 21
leaf_count=11 8 13 10 7 7 7 8 21
internal_value=5.21338e-11 -0.00136151 -0.00311717 -0.000702034 0.00389946 -0.0105952 -0.00219219 -0.00593263
internal_weight=92 84 73 63 43 20 36 28
internal_count=92 84 73 63 43 20 36 28
is_linear=0
shrinkage=0.1


Tree=41
num_leaves=10
num_cat=0
split_feature=11 0 4 6 9 11 3 10 4
split_gain=0.161244 0.253068 0.37737 0.263842 0.176465 0.0965142 0.218091 0.117234 0.0919287
threshold=3.8150000000000004 0.025579991162715501 0.77500000000000013 0.74500000000000011 3.2590000000000008 2.6066666666666669 2.1040000000000005 3.0091666666666668 0.79500000000000015
decision_type=2 2 2 2 2 2 2 2 2
left_child=1 2 -1 -3 -4 6 -5 8 -7
right_child=-2 3 4 5 -6 7 -8 -9 -10
leaf_value=0.029745241786752415 -0.012713499656981892 -0.015227193315513433 0.013221456749098644 0.0050179325354595969 -0.0085196331958286471 -0.00662486977461311 -0.015574928724931348 0.014562231333305441 0.0073060922697186477
leaf_weight=7.0000000000000027 8.9999999999999982 11.999999999999998 6.9999999999999991 12.000000000000002 7.9999999999999991 9.0000000000000053 8.9999999999999982 8.9999999999999982 9.9999999999999982
leaf_count=7 9 12 7 12 8 9 9 9 10
internal_value=1.75129e-10 0.00137857 0.0105732 -0.00193751 0.00162621 0.0013171 -0.00380758 0.00516061 0.000707216
internal_weight=92 83 22 61 15 49 21 28 19
internal_count=92 83 22 61 15 49 21 28 19
is_linear=0
shrinkage=0.1


Tree=42
num_leaves=11
num_cat=1
split_feature=8 10 12 3 2 5 1 11 4 12
split_gain=0.161437 0.249082 0.241604 0.228432 0.55509 0.398253 0.542206 0.156539 0.186354 0.0566168
threshold=0.47666666666666668 1.4816666666666667 2.0862500000000006 2.0260000000000002 0 2.6908333333333334 2.5000000000000004 2.6575000000000002 0.79500000000000015 3.1200000000000006
decision_type=2 2 2 2 1 2 2 2 2 2
left_child=-1 2 -2 5 -5 6 -3 -6 9 -9
right_child=1 3 -4 4 7 -7 -8 8 -10 -11
leaf_value=-0.011995408572256566 0.023493898194283248 0.020640022839818674 -0.0012770077479737146 0.028818035125732416 -0.011283769749570639 -0.027313286671414971 -0.017469522240571678 -0.0098678794689476459 0.014080504224532182 0.0024468367653233663
leaf_weight=9.9999999999999982 8.9999999999999982 7.0000000000000027 6.9999999999999991 7 11.999999999999998 7.9999999999999991 7.9999999999999991 8.0000000000000018 8.9999999999999982 6.9999999999999991
leaf_count=10 9 7 7 7 12 8 8 8 9 7
internal_value=9.61692e-12 0.00146285 0.0126566 -0.00125079 0.00305187 -0.00929488 0.000314932 -0.00195822 0.00270456 -0.00412101
internal_weight=92 82 16 66 43 23 15 36 24 15
internal_count=92 82 16 66 43 23 15 36 24 15
cat_boundaries=0 1
cat_threshold=2
is_linear=0
shrinkage=0.1


Tree=43
num_leaves=9
num_cat=0
split_feature=10 1 9 4 3 10 7 10
split_gain=0.139537 0.16761 0.756408 0.647418 0.611238 0.188657 0.0628054 0.0553407
threshold=4.9050000000000002 3.5000000000000004 3.3133333333333339 0.61666666666666681 1.7925000000000002 2.4127500000000004 1.6950000000000001 2.8650000000000007
decision_type=2 2 2 2 2 2 2 2
left_child=1 2 5 -3 -5 -1 -6 -8
right_child=-2 3 -4 4 6 -7 7 -9
leaf_value=0.012802645377814767 0.012619584030471743 -0.023448643047595398 -0.026839711129044493 0.026631975212755305 0.0067339545943670785 -0.0053280117836865511 -0.008585454542189834 0.0019350649695843458
leaf_weight=12.000000000000002 7.9999999999999991 7.9999999999999991 11.999999999999998 11.999999999999998 9.0000000000000018 10.999999999999998 10.000000000000002 9.9999999999999982
leaf_count=12 8 8 12 12 9 11 10 10
internal_value=8.04784e-11 -0.00120187 -0.00648723 0.00257339 0.00765086 0.00413146 -0.00020339 -0.00332519
internal_weight=92 84 35 49 41 23 29 20
internal_count=92 84 35 49 41 23 29 20
is_linear=0
shrinkage=0.1


Tree=44
num_leaves=10
num_cat=0
split_feature=8 8 0 6 3 1 4 8 5
split_gain=0.135094 0.210638 0.141348 0.350951 0.370915 0.265001 0.343433 0.270841 0.220519
threshold=0.47666666666666668 0.60000000000000009 0.3561372093236842 1.175 2.1040000000000005 3.5000000000000004 0.77500000000000013 0.9930000000000001 2.3265000000000007
decision_type=2 2 2 2 2 2 2 2 2
left_child=-1 -2 3 5 -5 7 -7 -3 -4
right_child=1 2 8 4 -6 6 -8 -9 -10
leaf_value=-0.010973140154965222 0.014214570016007533 0.026038838284356242 -0.0033773948554880924 -0.030708639626391233 -0.00025725560990395028 -0.023956429479377598 0.0035171356911842637 0.0016409902331920769 0.020926421122359377
leaf_weight=9.9999999999999982 10.999999999999998 7.0000000000000027 7.9999999999999982 7.9999999999999991 7.9999999999999991 7.0000000000000027 12.999999999999998 12.999999999999998 7
leaf_count=10 11 7 8 8 8 7 13 13 7
internal_value=-6.0865e-11 0.00133819 -0.000656745 -0.00296598 -0.0154829 0.00204081 -0.00609861 0.0101802 0.00796439
internal_weight=92 82 71 56 16 40 20 20 15
internal_count=92 82 71 56 16 40 20 20 15
is_linear=0
shrinkage=0.1


Tree=45
num_leaves=10
num_cat=1
split_feature=2 3 6 0 9 5 9 0 8
split_gain=0.123063 0.338245 0.507939 0.121208 0.275319 0.242589 0.180895 0.358114 0.360589
threshold=0 2.0260000000000002 0.99500000000000011 0.3561372093236842 2.6175000000000006 2.3265000000000007 2.5733333333333337 0.21179302605140332 1.3100000000000003
decision_type=1 2 2 2 2 2 2 2 2
left_child=1 2 -1 5 -5 6 -2 8 -8
right_child=3 -3 -4 4 -6 -7 7 -9 -10
leaf_value=0.012134226064451709 0.010102913510054351 0.024639703652688437 -0.022324287944606374 -0.011234668436061053 0.013720215166298053 -0.019708858042334521 -0.032237977986889196 0.0077322559508805474 -0.0026454936899244787
leaf_weight=11.000000000000005 9.9999999999999982 6.9999999999999991 6.9999999999999991 7.0000000000000027 11.999999999999998 8.9999999999999982 7.0000000000000062 11.999999999999998 9.9999999999999982
leaf_count=11 10 7 7 7 12 9 7 12 10
internal_value=1.01231e-11 0.00598738 -0.00126631 -0.0022341 0.00452631 -0.00491009 -0.00149499 -0.00549427 -0.0148306
internal_weight=92 25 18 67 19 48 39 29 17
internal_count=92 25 18 67 19 48 39 29 17
cat_boundaries=0 1
cat_threshold=2
is_linear=0
shrinkage=0.1


Tree=46
num_leaves=11
num_cat=0
split_feature=11 0 11 10 6 0 0 8 1 12
split_gain=0.112791 0.188951 0.275898 0.5555 0.215291 0.0651151 0.278812 0.17044 0.100236 0.0928654
threshold=3.8150000000000004 0.025579991162715501 3.0200000000000005 2.4127500000000004 0.74500000000000011 0.2855642370799234 0.3561372093236842 0.9930000000000001 3.5000000000000004 2.6340000000000003
decision_type=2 2 2 2 2 2 2 2 2 2
left_child=1 2 3 -1 -3 8 -7 -8 -6 -10
right_child=-2 4 -4 -5 5 6 7 -9 9 -11
leaf_value=0.019448963645845644 -0.010633116567300427 -0.013717196811921895 0.02549094500884946 -0.019124958344868253 0.01318970964186721 -0.017724502400596968 -0.006003175862133503 0.015363503561820835 -0.0086954700095312892 0.0063221939117647707
leaf_weight=8.0000000000000018 8.9999999999999982 11.999999999999998 6.9999999999999991 6.9999999999999991 9.0000000000000018 8.0000000000000018 6.9999999999999991 7.9999999999999991 7.0000000000000027 9.9999999999999982
leaf_count=8 9 12 7 7 9 8 7 8 7 10
internal_value=2.07048e-10 0.00115299 0.00909789 0.0014478 -0.00171239 0.00122757 -0.00264827 0.00539239 0.00465619 0.00013845
internal_weight=92 83 22 15 61 49 23 15 26 17
internal_count=92 83 22 15 61 49 23 15 26 17
is_linear=0
shrinkage=0.1


Tree=47
num_leaves=8
num_cat=0
split_feature=8 10 9 3 5 8 1
split_gain=0.112138 0.178093 0.120011 0.0687198 0.144881 0.135439 0.11621
threshold=0.47666666666666668 1.4716666666666667 4.4750000000000005 2.7100000000000004 2.6908333333333334 0.77500000000000013 2.5000000000000004
decision_type=2 2 2 2 2 2 2
left_child=-1 -2 3 4 5 -3 -7
right_child=1 2 -4 -5 -6 6 -8
leaf_value=-0.0099974542111158377 0.011955875530838968 -0.013959166048360722 0.0082857082209860291 0.0065626182194267 -0.014782271599397063 0.0097473745488307686 -0.0028410408688201148
leaf_weight=9.9999999999999982 12.999999999999998 6.9999999999999991 11.999999999999998 6.9999999999999991 9.9999999999999982 10.999999999999998 22
leaf_count=10 13 7 12 7 10 11 22
internal_value=9.31323e-11 0.0012192 -0.00080365 -0.0027172 -0.00401637 -0.0013249 0.0013551
internal_weight=92 82 69 57 50 40 33
internal_count=92 82 69 57 50 40 33
is_linear=0
shrinkage=0.1


Tree=48
num_leaves=9
num_cat=0
split_feature=7 9 1 4 4 4 5 0
split_gain=0.102441 0.120506 0.181304 0.830276 0.656425 0.565939 0.611048 0.268943
threshold=2.3000000000000003 4.4250000000000007 3.5000000000000004 0.74500000000000011 1.1291666666666667 0.74500000000000011 2.3265000000000007 0.26261274222395126
decision_type=2 2 2 2 2 2 2 2
left_child=1 2 3 -1 -5 7 -7 -4
right_child=-2 -3 5 4 -6 6 -8 -9
leaf_value=0.01661097247322852 -0.0082259365966400287 0.011612858353182674 -0.023813993776483185 -0.039840827602893099 -0.0034337718039751056 0.0032099388754711698 0.039856401564819476 0.0017427494965522783
leaf_weight=10.999999999999998 12.999999999999998 9.9999999999999982 7.0000000000000027 8.0000000000000018 12.999999999999998 13.000000000000002 6.9999999999999991 9.9999999999999982
leaf_count=11 13 10 7 8 13 13 7 10
internal_value=6.05565e-11 0.00135364 -0.000133209 -0.00564515 -0.0173031 0.00463388 0.0160362 -0.00878062
internal_weight=92 79 69 32 21 37 20 17
internal_count=92 79 69 32 21 37 20 17
is_linear=0
shrinkage=0.1


Tree=49
num_leaves=11
num_cat=1
split_feature=8 8 5 3 1 2 0 3 8 3
split_gain=0.10012 0.160882 0.125331 0.362762 0.170121 0.287151 0.181418 0.274961 0.15474 0.0250191
threshold=0.47666666666666668 0.60000000000000009 2.6908333333333334 1.9262500000000002 2.5000000000000004 0 0.31635853084477905 1.7925000000000002 1.1775000000000002 2.2520000000000002
decision_type=2 2 2 2 2 1 2 2 2 2
left_child=-1 -2 4 -4 5 -3 7 -6 -8 -9
right_child=1 2 3 -5 6 -7 8 9 -10 -11
leaf_value=-0.0094465510826557894 0.012405300142497501 0.025547985572900091 -0.023438583104871215 0.0066762797883711759 -0.023959926795214404 -0.001457073756804069 -0.0041185021134359503 0.0032056889496743669 0.016240352147724482 -0.004480201308615506
leaf_weight=9.9999999999999982 10.999999999999998 7 7.9999999999999991 7.9999999999999991 7.0000000000000027 8.9999999999999982 6.9999999999999991 9.0000000000000018 7.9999999999999991 7.9999999999999991
leaf_count=10 11 7 8 8 7 9 7 9 8 8
internal_value=4.68192e-11 0.00115202 -0.000591448 -0.00838115 0.00167465 0.0103576 -0.00188761 -0.00727958 0.00673955 -0.000411201
internal_weight=92 82 71 16 55 16 39 24 15 17
internal_count=92 82 71 16 55 16 39 24 15 17
cat_boundaries=0 1
cat_threshold=2
is_linear=0
shrinkage=0.1


Tree=50
num_leaves=11
num_cat=0
split_feature=11 0 4 6 10 1 11 0 12 4
split_gain=0.0907536 0.164077 0.232467 0.173425 0.0789035 0.0740063 0.138622 0.10444 0.117264 0.00844873
threshold=3.8150000000000004 0.025579991162715501 0.77500000000000013 0.74500000000000011 2.7390000000000003 5.5000000000000009 2.7450000000000006 0.2855642370799234 2.5233333333333339 0.84583333333333355
decision_type=2 2 2 2 2 2 2 2 2 2
left_child=1 2 -1 -3 -4 7 -7 8 -5 -10
right_child=-2 3 4 5 -6 6 -8 -9 9 -11
leaf_value=0.023485314207417615 -0.009537965887122685 -0.012410417369877299 0.0091690640896558758 0.018347111231248284 -0.005368771200301126 -0.015092649364045691 0.0048086468130350106 -0.0036455254285381392 0.00045241380503284755 0.0052095682759370114
leaf_weight=7.0000000000000027 8.9999999999999982 11.999999999999998 6.9999999999999991 7.0000000000000027 7.9999999999999991 6.9999999999999982 7 12.999999999999998 7.9999999999999982 7
leaf_count=7 9 12 7 7 8 7 7 13 8 7
internal_value=-4.76417e-11 0.00103424 0.00843775 -0.00163588 0.00141555 0.00100278 -0.005142 0.00346069 0.00765982 0.00267242
internal_weight=92 83 22 61 15 49 14 35 22 15
internal_count=92 83 22 61 15 49 14 35 22 15
is_linear=0
shrinkage=0.1


Tree=51
num_leaves=11
num_cat=0
split_feature=12 5 0 1 10 5 9 8 9 10
split_gain=0.0882057 0.123398 0.188217 0.140361 0.667779 0.593077 0.694855 0.133877 0.0606184 0.0189767
threshold=1.7250000000000003 1.3700000000000003 0.19603150857342982 3.5000000000000004 1.8275000000000003 1.8000000000000003 3.3133333333333339 0.9301666666666667 4.4250000000000007 3.3500000000000005
decision_type=2 2 2 2 2 2 2 2 2 2
left_child=-1 2 -2 5 -5 -3 -7 -6 9 -9
right_child=1 3 -4 4 7 6 -8 8 -10 -11
leaf_value=0.0084023480557582596 -0.021274491000388352 0.020449228890772369 0.0019152526444356354 0.030279796803370118 -0.013268695947772352 0.0041823264888741739 -0.032239377994555979 0.009547596557864118 -0.0046532420907169584 0.0021842299295323233
leaf_weight=10.999999999999998 6.9999999999999982 7.0000000000000027 7 7.9999999999999991 8.0000000000000018 11.000000000000002 9.9999999999999982 7.0000000000000018 8.9999999999999982 7
leaf_count=11 7 7 7 8 8 11 10 7 9 7
internal_value=-1.38813e-10 -0.00114106 -0.00967962 0.000643117 0.00452134 -0.0047587 -0.0131613 -0.002126 0.00174972 0.00586591
internal_weight=92 81 14 67 39 28 21 31 23 14
internal_count=92 81 14 67 39 28 21 31 23 14
is_linear=0
shrinkage=0.1


Tree=52
num_leaves=9
num_cat=0
split_feature=10 1 3 9 3 4 10 6
split_gain=0.0943808 0.150975 0.536782 0.749428 0.498521 0.289311 0.209315 0.0327131
threshold=4.9050000000000002 3.5000000000000004 2.0260000000000002 2.8300000000000005 1.7925000000000002 0.74500000000000011 2.3745833333333342 0.97733333333333339
decision_type=2 2 2 2 2 2 2 2
left_child=1 2 3 -1 5 -3 -6 -8
right_child=-2 4 -4 -5 6 -7 7 -9
leaf_value=0.0013241513709848123 0.010378689596836922 0.0029335772402451507 0.010105655984415745 -0.035742703862488269 -0.014728879168008767 0.030771308764815333 -0.0021663315975191913 0.0055458955551412979
leaf_weight=12.000000000000002 7.9999999999999991 6.9999999999999991 12.999999999999998 9.9999999999999982 11.999999999999998 7.9999999999999991 11.000000000000002 10.999999999999998
leaf_count=12 8 7 13 10 12 8 11 11
internal_value=-1.4438e-10 -0.000988447 -0.00600468 -0.0155244 0.00259457 0.0177804 -0.00410504 0.00168978
internal_weight=92 84 35 22 49 15 34 22
internal_count=92 84 35 22 49 15 34 22
is_linear=0
shrinkage=0.1


Tree=53
num_leaves=10
num_cat=0
split_feature=5 8 10 8 0 11 9 0 4
split_gain=0.0908572 0.181469 0.128754 0.159884 0.102076 0.237813 0.130378 0.097341 0.1345
threshold=1.4500000000000002 0.60000000000000009 3.0091666666666668 0.50500000000000012 0.42153319265015493 2.0200000000000005 4.4750000000000005 1.0000000180025095e-35 0.75333333333333352
decision_type=2 2 2 2 2 2 2 2 2
left_child=2 -2 3 -1 5 -3 7 -7 -9
right_child=1 4 -4 -5 -6 6 -8 8 -10
leaf_value=-0.022000278159975996 0.017116704902478626 -0.018643843808344433 0.0041660592477354734 -0.0013058064112556169 0.010646083136089148 -0.011796450402055469 0.013707031941573536 -0.0077358349459245804 0.0059140612105173726
leaf_weight=7.0000000000000027 6.9999999999999991 6.9999999999999991 8.9999999999999982 7.9999999999999991 7.9999999999999991 6.9999999999999991 6.9999999999999991 10.999999999999998 21
leaf_count=7 7 7 9 8 8 7 7 11 21
internal_value=-6.95961e-12 0.00186697 -0.00528974 -0.0109632 0.000116999 -0.0014723 0.00114076 -0.00111472 0.00122191
internal_weight=92 68 24 15 61 53 46 39 32
internal_count=92 68 24 15 61 53 46 39 32
is_linear=0
shrinkage=0.1


Tree=54
num_leaves=9
num_cat=1
split_feature=12 12 2 0 11 1 5 0
split_gain=0.0827363 0.10417 0.225119 0.241807 0.134911 0.330431 0.471545 0.160629
threshold=1.7250000000000003 2.9675000000000007 0 0.31635853084477905 3.1100000000000003 2.5000000000000004 2.3265000000000007 0.26261274222395126
decision_type=2 2 1 2 2 2 2 2
left_child=-1 4 -3 -4 5 -2 7 -7
right_child=1 2 3 -5 -6 6 -8 -9
leaf_value=0.0081376759801059968 -0.01618800860914317 0.019316584616899488 -0.01175678543407808 0.0092110309834507378 -0.014221918471157552 -0.011568643415177403 0.026822723701064078 0.0048504667985700793
leaf_weight=10.999999999999998 10.999999999999998 7 11.000000000000005 10.999999999999998 9.9999999999999982 11.000000000000005 6.9999999999999991 12.999999999999998
leaf_count=11 11 7 11 11 10 11 7 13
internal_value=7.01339e-11 -0.00110512 0.00369699 -0.00127288 -0.00378322 -0.00129781 0.00398581 -0.00267496
internal_weight=92 81 29 22 52 42 31 24
internal_count=92 81 29 22 52 42 31 24
cat_boundaries=0 1
cat_threshold=2
is_linear=0
shrinkage=0.1


Tree=55
num_leaves=10
num_cat=0
split_feature=10 1 3 9 3 9 11 5 9
split_gain=0.0830617 0.109536 0.42938 0.634737 0.391263 0.235771 0.159067 0.146182 0.0399751
threshold=4.9050000000000002 3.5000000000000004 2.0260000000000002 3.3133333333333339 1.7925000000000002 2.5733333333333337 2.4208333333333338 1.4500000000000002 3.8874999999999997
decision_type=2 2 2 2 2 2 2 2 2
left_child=1 2 3 6 5 -3 -1 -6 -9
right_child=-2 4 -4 -5 7 -7 -8 8 -10
leaf_value=0.0088980721841965364 0.0097364632179960612 0.0038505424949107701 0.0092087755436435909 -0.038578878343105319 -0.015631507145008074 0.028980767480762937 -0.011743468465283513 0.0037476370755869601 -0.0040945654591688745
leaf_weight=7.0000000000000027 7.9999999999999991 7.9999999999999982 12.999999999999998 6.9999999999999991 7.9999999999999991 7 7.9999999999999991 13.000000000000002 12.999999999999998
leaf_count=7 8 8 13 7 8 7 8 13 13
internal_value=-1.83101e-10 -0.000927282 -0.00519998 -0.0137142 0.00212464 0.015578 -0.00211075 -0.00381065 -0.000173464
internal_weight=92 84 35 22 49 15 15 34 26
internal_count=92 84 35 22 49 15 15 34 26
is_linear=0
shrinkage=0.1


Tree=56
num_leaves=11
num_cat=1
split_feature=8 8 5 3 1 2 0 3 8 5
split_gain=0.0807962 0.141171 0.0907365 0.221439 0.153566 0.235744 0.103664 0.285665 0.115398 0.019893
threshold=0.47666666666666668 0.57000000000000017 2.6908333333333334 1.9262500000000002 2.5000000000000004 0 0.31635853084477905 1.7050000000000003 1.1775000000000002 2.1425000000000005
decision_type=2 2 2 2 2 1 2 2 2 2
left_child=-1 -2 4 -4 5 -3 7 -6 -8 -9
right_child=1 2 3 -5 6 -7 8 9 -10 -11
leaf_value=-0.0084861040860414513 0.013654227927327157 0.023610213345714975 -0.018760665191803128 0.0047679809853434568 -0.022755638576511816 -0.00085845113628440432 -0.0043773938901722435 0.0032912534220182949 0.013203867722768338 -0.003146434924565256
leaf_weight=9.9999999999999982 7.9999999999999991 7 7.9999999999999991 7.9999999999999991 7.0000000000000027 8.9999999999999982 6.9999999999999991 12.000000000000002 7.9999999999999991 7.9999999999999991
leaf_count=10 8 7 8 8 7 9 7 12 8 8
internal_value=1.98729e-10 0.00103489 -0.000329362 -0.00699634 0.00150981 0.00984659 -0.00166611 -0.00536911 0.00499928 0.000716178
internal_weight=92 82 74 16 58 16 42 27 15 20
internal_count=92 82 74 16 58 16 42 27 15 20
cat_boundaries=0 1
cat_threshold=2
is_linear=0
shrinkage=0.1


Tree=57
num_leaves=11
num_cat=1
split_feature=2 12 6 10 8 0 1 4 3 0
split_gain=0.0756053 0.163848 0.219892 0.0696723 0.196555 0.092459 0.0866613 0.0773009 0.0458307 0.0143074
threshold=0 2.9675000000000007 0.96500000000000008 2.3745833333333342 0.50500000000000012 0.37718821592566093 4.5000000000000009 0.83333333333333348 2.2520000000000002 0.19603150857342982
decision_type=1 2 2 2 2 2 2 2 2 2
left_child=1 2 -1 4 -2 8 7 -6 9 -5
right_child=3 -3 -4 5 6 -7 -8 -9 -10 -11
leaf_value=0.0084614928811788514 -0.019898167729843409 0.017674866771059377 -0.014210818980687432 -0.0011730863845774101 0.011598506273834828 0.010826891264878215 -0.0077616305333900867 -0.0027909362092032098 -0.0063695654865692968 0.0050175001233583316
leaf_weight=11.000000000000005 6.9999999999999991 6.9999999999999991 6.9999999999999991 7.0000000000000027 7.0000000000000027 7.9999999999999991 10.999999999999998 7.9999999999999991 10.999999999999998 7.9999999999999991
leaf_count=11 7 7 7 7 7 8 11 8 11 8
internal_value=7.12411e-11 0.00469299 -0.000355517 -0.00175112 -0.00502434 0.00142583 -0.00101984 0.00392414 -0.0014668 0.00212856
internal_weight=92 25 18 67 33 34 26 15 26 15
internal_count=92 25 18 67 33 34 26 15 26 15
cat_boundaries=0 1
cat_threshold=2
is_linear=0
shrinkage=0.1


Tree=58
num_leaves=11
num_cat=0
split_feature=12 11 0 6 11 10 11 0 1 4
split_gain=0.0676916 0.0750409 0.120434 0.203698 0.173425 0.219632 0.0807732 0.0595822 0.0488633 0.0940999
threshold=1.7250000000000003 3.8150000000000004 0.025579991162715501 0.74500000000000011 3.0200000000000005 2.4127500000000004 2.6066666666666669 0.3414041486180816 4.5000000000000009 0.77500000000000013
decision_type=2 2 2 2 2 2 2 2 2 2
left_child=-1 2 4 -4 5 -2 7 -5 -8 -10
right_child=1 -3 3 6 -6 -7 8 -9 9 -11
leaf_value=0.0073607098395851531 0.012498850907598218 -0.010193992382846774 -0.016253771692410941 -0.010022943345829842 0.01925125691507544 -0.012551501340099741 0.0088571444672363026 0.0020061742081972107 -0.0073265244252979774 0.0085496652771585753
leaf_weight=10.999999999999998 7.0000000000000018 7.9999999999999991 8.9999999999999982 10.000000000000002 6.9999999999999991 7 11.000000000000002 6.9999999999999991 7.9999999999999982 7
leaf_count=11 7 8 9 10 7 7 11 7 8 7
internal_value=6.51673e-11 -0.000999602 8.00187e-06 -0.00257319 0.00639954 -2.63252e-05 0.000290182 -0.00506978 0.00379477 8.23641e-05
internal_weight=92 81 73 52 21 14 43 17 26 15
internal_count=92 81 73 52 21 14 43 17 26 15
is_linear=0
shrinkage=0.1


Tree=59
num_leaves=11
num_cat=1
split_feature=8 8 5 3 1 2 0 7 8 8
split_gain=0.0716971 0.120438 0.0796655 0.180859 0.118649 0.181696 0.0943124 0.208804 0.0928263 0.0138416
threshold=0.47666666666666668 0.60000000000000009 2.6908333333333334 1.9262500000000002 2.5000000000000004 0 0.31635853084477905 1.4720000000000002 1.1775000000000002 1.1050000000000002
decision_type=2 2 2 2 2 1 2 2 2 2
left_child=-1 -2 4 -4 5 -3 7 -6 -8 -9
right_child=1 2 3 -5 6 -7 8 9 -10 -11
leaf_value=-0.0079939948022365575 0.010711491527035833 0.020607755812151088 -0.01737599837797461 0.0038877562619745731 -0.018780585634522132 -0.0008736084836224715 -0.0038913490383752757 0.0043410372321626969 0.011877036653459072 -0.001587973304817246
leaf_weight=9.9999999999999982 10.999999999999998 7 7.9999999999999991 7.9999999999999991 8.0000000000000018 8.9999999999999982 6.9999999999999991 6.9999999999999991 7.9999999999999991 8.9999999999999982
leaf_count=10 11 7 8 8 8 9 7 7 8 9
internal_value=2.11319e-11 0.000974877 -0.000533612 -0.00674412 0.00127308 0.00852449 -0.00170185 -0.00558955 0.00451846 0.00100597
internal_weight=92 82 71 16 55 16 39 24 15 16
internal_count=92 82 71 16 55 16 39 24 15 16
cat_boundaries=0 1
cat_threshold=2
is_linear=0
shrinkage=0.1


Tree=60
num_leaves=9
num_cat=0
split_feature=12 5 8 12 1 0 4 7
split_gain=0.0614047 0.0746844 0.066093 0.080105 0.0862212 0.108546 0.174035 0.171539
threshold=1.7250000000000003 0.81500000000000006 0.60000000000000009 2.0862500000000006 2.5000000000000004 0.31635853084477905 0.79500000000000015 1.4720000000000002
decision_type=2 2 2 2 2 2 2 2
left_child=-1 -2 -3 -4 -5 7 -7 -6
right_child=1 2 3 4 5 6 -8 -9
leaf_value=0.0070105649107559164 -0.010124576726229862 0.0076055835373699671 -0.0088985535739497714 0.0075472711657102289 -0.019202319426195952 -0.0052590673207305386 0.016331761327871518 -0.00060231848568518599
leaf_weight=10.999999999999998 7.9999999999999991 9.9999999999999982 10.999999999999998 12.999999999999998 7.0000000000000027 7.9999999999999982 7 17
leaf_count=11 8 10 11 13 7 8 7 17
internal_value=1.2948e-10 -0.000952052 5.31563e-05 -0.00114564 0.000494397 -0.00185656 0.00481665 -0.00602732
internal_weight=92 81 73 63 52 39 15 24
internal_count=92 81 73 63 52 39 15 24
is_linear=0
shrinkage=0.1


Tree=61
num_leaves=9
num_cat=0
split_feature=8 10 10 5 0 4 12 3
split_gain=0.064408 0.12123 0.0653747 0.0500385 0.0959641 0.0900018 0.0714905 0.0270749
threshold=0.47666666666666668 1.4716666666666667 4.9050000000000002 2.5545000000000004 0.012743846036667686 0.79500000000000015 2.0862500000000006 2.2950000000000004
decision_type=2 2 2 2 2 2 2 2
left_child=-1 -2 3 5 -5 7 -7 -3
right_child=1 2 -4 4 -6 6 -8 -9
leaf_value=-0.0075767500698566449 0.0097823147447063385 -0.0016149052060567414 0.0077546702465042475 -0.015400210022926323 -0.00087746854584950683 -0.0016680771523776149 0.010349628666881473 -0.009008856453147019
leaf_weight=9.9999999999999982 12.999999999999998 13.000000000000002 7.9999999999999991 7.0000000000000027 12.999999999999998 9.0000000000000018 10.999999999999998 7.9999999999999991
leaf_count=10 13 13 8 7 13 9 11 8
internal_value=-7.21902e-11 0.000923994 -0.000744965 -0.00185967 -0.00596043 0.000140698 0.00494166 -0.00443165
internal_weight=92 82 69 61 20 41 20 21
internal_count=92 82 69 61 20 41 20 21
is_linear=0
shrinkage=0.1


Tree=62
num_leaves=11
num_cat=0
split_feature=0 1 7 9 9 1 5 5 3 11
split_gain=0.0544748 0.335781 0.222394 0.121272 0.134618 0.111503 0.58372 0.390861 0.238944 0.0608174
threshold=0.2855642370799234 3.5000000000000004 1.2850000000000004 2.4466666666666668 4.4750000000000005 2.5000000000000004 2.6908333333333334 1.8000000000000003 2.1700000000000004 2.801333333333333
decision_type=2 2 2 2 2 2 2 2 2 2
left_child=3 -2 -3 -1 5 6 -5 -7 -9 -4
right_child=1 2 9 4 -6 7 -8 8 -10 -11
leaf_value=0.01411875250882336 -0.022684377870921566 0.017208672075399323 -0.011118667226816922 0.0050793490744231694 0.013066961509840831 -0.011057399368534483 -0.030738253891468049 0.02664873791592462 0.0013499382002919447 0.0010344978870125488
leaf_weight=6.9999999999999991 7.0000000000000027 7.0000000000000027 7.0000000000000027 13.000000000000002 6.9999999999999991 12.000000000000002 6.9999999999999991 6.9999999999999991 7.9999999999999991 9.9999999999999982
leaf_count=7 7 7 7 13 7 12 7 7 8 10
internal_value=5.61198e-11 -0.00341341 0.00220729 0.00173468 0.00012934 -0.00179754 -0.00745681 0.00239451 0.013156 -0.00396975
internal_weight=92 31 24 61 54 47 20 27 15 17
internal_count=92 31 24 61 54 47 20 27 15 17
is_linear=0
shrinkage=0.1


Tree=63
num_leaves=9
num_cat=0
split_feature=12 5 6 8 5 0 11 4
split_gain=0.0543802 0.0601096 0.1158 0.0942812 0.0649712 0.136754 0.0698858 0.10495
threshold=1.7250000000000003 1.3700000000000003 0.85625000000000007 0.63000000000000012 1.8000000000000003 0.012743846036667686 2.4816666666666678 0.79500000000000015
decision_type=2 2 2 2 2 2 2 2
left_child=-1 2 -2 -3 -5 -6 -7 -8
right_child=1 3 -4 4 5 6 7 -9
leaf_value=0.0065973973536694597 -0.015950086160695983 0.009305275417864323 0.0022393891704268749 0.0053159874049015345 -0.015809537576777593 -0.0077753106126328938 -0.0041587345327051082 0.0080857895002866692
leaf_weight=10.999999999999998 6.9999999999999982 9.9999999999999982 7 11.999999999999998 6.9999999999999991 9.9999999999999982 14.000000000000002 13.999999999999998
leaf_count=11 7 10 7 12 7 10 14 14
internal_value=-5.02357e-11 -0.000895943 -0.00685535 0.000349306 -0.00122192 -0.00296536 -0.000599325 0.00196353
internal_weight=92 81 14 67 57 45 38 28
internal_count=92 81 14 67 57 45 38 28
is_linear=0
shrinkage=0.1


Tree=64
num_leaves=10
num_cat=0
split_feature=0 3 3 12 0 0 11 0 3
split_gain=0.0584137 0.282902 0.118491 0.0941845 0.0763712 0.0499625 0.0911017 0.115645 0.102958
threshold=0.025579991162715501 1.5750000000000004 1.3050000000000002 2.5233333333333339 0.13576159731686943 0.21179302605140332 2.6066666666666669 0.37718821592566093 2.2950000000000004
decision_type=2 2 2 2 2 2 2 2 2
left_child=1 -1 -2 -3 -4 -6 7 -7 -8
right_child=2 3 4 -5 5 6 8 -9 -10
leaf_value=0.021160927414894094 -0.012928874965291472 -0.011621861758508847 0.0085201176504294089 0.0035020834766328335 -0.0071140483254566794 -0.01134725221517411 0.010833761371516931 0.0044542460818774998 -0.0038118880962429106
leaf_weight=7.0000000000000027 7.9999999999999991 7.0000000000000027 8.9999999999999982 9.9999999999999982 11.999999999999998 11.000000000000002 12.000000000000002 7.9999999999999991 7.9999999999999991
leaf_count=7 8 7 9 10 12 11 12 8 8
internal_value=-4.74519e-12 0.00424143 -0.00149697 -0.00272542 2.72784e-05 -0.00147146 0.000264724 -0.00469399 0.0049755
internal_weight=92 24 68 17 60 51 39 19 20
internal_count=92 24 68 17 60 51 39 19 20
is_linear=0
shrinkage=0.1


Tree=65
num_leaves=11
num_cat=2
split_feature=12 12 2 0 1 5 5 2 5 6
split_gain=0.0489758 0.0520809 0.146893 0.144716 0.0884732 0.436188 0.357339 0.128549 0.0817528 0.0149598
threshold=1.7250000000000003 2.9675000000000007 0 0.31635853084477905 2.5000000000000004 2.4050000000000007 2.4050000000000007 1 1.8750000000000002 0.83500000000000008
decision_type=2 2 1 2 2 2 2 1 2 2
left_child=-1 4 -3 -4 5 -2 7 9 -9 -6
right_child=1 2 3 -5 6 -7 -8 8 -10 -11
leaf_value=0.0062609894624487926 0.0090078564477153126 0.015162420538919311 -0.0095798384948548882 0.0066411239518360662 -0.001135590220136301 -0.025173425814136865 0.02022712158338566 -0.017291883454244178 -0.0028826474927232727 0.0054021728358098434
leaf_weight=10.999999999999998 6.9999999999999991 7 11.000000000000005 10.999999999999998 7.0000000000000036 7.9999999999999991 6.9999999999999991 8.9999999999999947 7.0000000000000009 7
leaf_count=11 7 7 11 11 7 8 7 9 7 7
internal_value=2.56873e-11 -0.000850258 0.00254521 -0.00146936 -0.00274388 -0.00922216 -0.000117556 -0.00486465 -0.0109878 0.00213329
internal_weight=92 81 29 22 52 15 37 30 16 14
internal_count=92 81 29 22 52 15 37 30 16 14
cat_boundaries=0 1 2
cat_threshold=2 1
is_linear=0
shrinkage=0.1


Tree=66
num_leaves=11
num_cat=0
split_feature=0 1 7 9 9 0 5 1 5 12
split_gain=0.0507733 0.254034 0.171111 0.108962 0.0930681 0.0975446 0.210922 0.17645 0.469356 0.0308948
threshold=0.2855642370799234 3.5000000000000004 1.3950000000000002 2.4466666666666668 4.4750000000000005 0.21179302605140332 1.3700000000000003 2.5000000000000004 2.6908333333333334 3.1200000000000006
decision_type=2 2 2 2 2 2 2 2 2 2
left_child=3 -2 -3 -1 5 6 -5 8 -8 -4
right_child=1 2 9 4 -6 -7 7 -9 -10 -11
leaf_value=0.013413449642913683 -0.020057245317314343 0.012494253495363709 -0.009192223884747365 -0.019236128724047119 0.010910325896527087 0.0086095293285325166 0.0057890041614882641 0.0089043128474328957 -0.026793794653245381 -9.5299977277006414e-05
leaf_weight=6.9999999999999991 7.0000000000000027 9.0000000000000018 7.9999999999999982 6.9999999999999991 6.9999999999999991 7.9999999999999991 12.000000000000002 12.999999999999998 6.9999999999999991 7
leaf_count=7 7 9 8 7 7 8 12 13 7 7
internal_value=-1.08305e-10 -0.0032954 0.00159347 0.00167471 0.000153022 -0.00144913 -0.00351244 -7.28889e-05 -0.00621518 -0.00494699
internal_weight=92 31 24 61 54 47 39 32 19 15
internal_count=92 31 24 61 54 47 39 32 19 15
is_linear=0
shrinkage=0.1


Tree=67
num_leaves=10
num_cat=0
split_feature=0 3 11 12 1 0 12 6 0
split_gain=0.0596658 0.257215 0.0958241 0.103864 0.166593 0.146961 0.0673433 0.0458537 0.0484648
threshold=0.025579991162715501 1.5750000000000004 1.925 1.7250000000000003 3.5000000000000004 0.21179302605140332 2.5233333333333339 1.4900000000000002 0.3561372093236842
decision_type=2 2 2 2 2 2 2 2 2
left_child=1 -1 -2 -4 -5 -6 -3 8 -7
right_child=2 6 3 4 5 7 -8 -9 -10
leaf_value=0.02041975078838211 -0.012594441484127725 -0.0098790956794151188 0.010379608650691808 0.0085187022263805076 -0.013664071183078564 0.00027412850564966586 0.0029094912135042249 0.0050817144982930693 -0.010195964973952089
leaf_weight=7.0000000000000027 6.9999999999999991 7.0000000000000027 7.9999999999999991 11.999999999999998 12.999999999999998 12.000000000000005 9.9999999999999982 8.9999999999999982 6.9999999999999991
leaf_count=7 7 7 8 12 13 12 10 9 7
internal_value=-4.58069e-11 0.00428665 -0.00151293 -0.000241285 -0.00184444 -0.00487755 -0.0023564 -0.000798099 -0.00358327
internal_weight=92 24 68 61 53 41 17 28 19
internal_count=92 24 68 61 53 41 17 28 19
is_linear=0
shrinkage=0.1


Tree=68
num_leaves=10
num_cat=0
split_feature=0 3 3 10 7 4 0 11 0
split_gain=0.0483293 0.208344 0.0888665 0.0625521 0.0520142 0.0687519 0.0406223 0.112259 0.0336424
threshold=0.025579991162715501 1.5750000000000004 1.3050000000000002 2.4127500000000004 2.3000000000000003 1.1291666666666667 0.37718821592566093 2.2800000000000007 0.26261274222395126
decision_type=2 2 2 2 2 2 2 2 2
left_child=1 -1 -2 -3 5 6 7 -4 -9
right_child=2 3 4 -5 -6 -7 -8 8 -10
leaf_value=0.018377776337521409 -0.011261868290603161 0.0051294002149786244 -0.013090240236903942 -0.0071958694118075071 -0.0059302562537292642 0.0093088582365049265 0.0065129039276923461 -0.0022873332437414384 0.0050552863026193037
leaf_weight=7.0000000000000027 7.9999999999999991 7.0000000000000027 6.9999999999999991 9.9999999999999982 11.999999999999998 8.9999999999999982 6.9999999999999991 13.000000000000002 11.999999999999998
leaf_count=7 8 7 7 10 12 9 7 13 12
internal_value=-6.73184e-11 0.00385798 -0.00136164 -0.00212076 -4.161e-05 0.00143055 -0.000387519 -0.00189699 0.00123712
internal_weight=92 24 68 17 60 48 39 32 25
internal_count=92 24 68 17 60 48 39 32 25
is_linear=0
shrinkage=0.1


Tree=69
num_leaves=10
num_cat=0
split_feature=0 1 9 9 9 1 7 5 4
split_gain=0.0400656 0.191454 0.132698 0.0880144 0.0784563 0.0849775 0.40652 0.24368 0.205956
threshold=0.2855642370799234 3.5000000000000004 3.5141666666666667 2.4466666666666668 4.4750000000000005 2.5000000000000004 1.5025000000000002 1.8000000000000003 0.84583333333333355
decision_type=2 2 2 2 2 2 2 2 2
left_child=3 -2 -3 -1 5 6 -5 -7 -9
right_child=1 2 -4 4 -6 7 -8 8 -10
leaf_value=0.012037851555006845 -0.017478871841116666 0.0087526212524001775 -0.0061189558822661643 0.0066044362812218323 0.0099968771051083295 -0.008312776257904865 -0.022053080507450636 0.02333254126299705 -0.00015506651252508166
leaf_weight=6.9999999999999991 7.0000000000000027 12.000000000000002 11.999999999999998 11.000000000000002 6.9999999999999991 12.000000000000002 8.9999999999999982 6.9999999999999991 7.9999999999999991
leaf_count=7 7 12 12 11 7 12 9 7 8
internal_value=-1.79685e-11 -0.00292736 0.00131683 0.00148767 0.000120058 -0.00135096 -0.00629145 0.00230866 0.0108058
internal_weight=92 31 24 61 54 47 20 27 15
internal_count=92 31 24 61 54 47 20 27 15
is_linear=0
shrinkage=0.1


Tree=70
num_leaves=10
num_cat=1
split_feature=11 0 1 8 8 2 1 11 11
split_gain=0.0424866 0.102529 0.248188 0.300662 0.117613 0.0879257 0.0412283 0.053373 0.0525171
threshold=3.8150000000000004 1.0000000180025095e-35 2.5000000000000004 0.50500000000000012 1.0816666666666668 0 4.5000000000000009 2.6066666666666669 2.6575000000000002
decision_type=2 2 2 2 2 1 2 2 2
left_child=1 4 -3 -4 -1 -5 7 -7 -8
right_child=-2 2 3 5 -6 6 8 -9 -10
leaf_value=0.01765719705394336 -0.0065260399339927572 -0.017488089221296833 0.019310543313622475 -0.011939540239317075 -9.2048142687417569e-05 -0.00039905328303575511 -0.0073337579771759892 0.01058842634250011 0.001681589611273791
leaf_weight=6.9999999999999991 8.9999999999999982 7.9999999999999991 7.9999999999999991 7 7.9999999999999991 12.000000000000002 12.000000000000002 6.9999999999999991 13.999999999999998
leaf_count=7 9 8 8 7 8 12 12 7 14
internal_value=-1.1167e-10 0.000707643 -0.000943083 0.00126292 0.00819093 -0.00151364 0.000108167 0.00364897 -0.00247934
internal_weight=92 83 68 60 15 52 45 19 26
internal_count=92 83 68 60 15 52 45 19 26
cat_boundaries=0 1
cat_threshold=2
is_linear=0
shrinkage=0.1


Tree=71
num_leaves=10
num_cat=0
split_feature=12 12 0 0 1 12 5 6 1
split_gain=0.0371557 0.043451 0.112357 0.12602 0.0701047 0.341807 0.232466 0.104709 0.0418905
threshold=1.7250000000000003 2.9675000000000007 0.063186296769755637 0.31635853084477905 2.5000000000000004 2.2500000000000004 2.4050000000000007 0.83500000000000008 4.5000000000000009
decision_type=2 2 2 2 2 2 2 2 2
left_child=-1 4 -3 -4 5 -2 7 -6 -9
right_child=1 2 3 -5 6 -7 -8 8 -10
leaf_value=0.0054533717603507366 -0.024374577615942278 0.013395585651908596 -0.0087187041888352121 0.0064182640476660299 -0.011196869254733122 0.0058835428906604649 0.016276957972773485 0.0062561337952502048 -0.0034522995696170257
leaf_weight=10.999999999999998 6.9999999999999991 7.0000000000000027 11.000000000000002 10.999999999999998 12.000000000000002 7.9999999999999991 6.9999999999999991 8.0000000000000018 9.9999999999999982
leaf_count=11 7 7 11 11 12 8 7 8 10
internal_value=-3.68859e-11 -0.000740581 0.00236084 -0.00115022 -0.00247022 -0.00823691 -0.000132369 -0.00396121 0.00086256
internal_weight=92 81 29 22 52 15 37 30 18
internal_count=92 81 29 22 52 15 37 30 18
is_linear=0
shrinkage=0.1


Tree=72
num_leaves=10
num_cat=2
split_feature=8 8 1 9 2 2 5 12 0
split_gain=0.0381328 0.0989234 0.060547 0.167758 0.064727 0.0432495 0.0228953 0.0246795 0.0671086
threshold=0.47666666666666668 0.57000000000000017 2.5000000000000004 3.5141666666666667 0 1 2.6908333333333334 3.1750000000000003 0.42153319265015493
decision_type=2 2 2 2 1 1 2 2 2
left_child=-1 -2 3 5 -4 -3 7 8 -6
right_child=1 2 4 -5 6 -7 -8 -9 -10
leaf_value=-0.005829919800162316 0.011274601903278381 -0.0077649472015244615 -0.011190072127750941 0.016753173725945609 0.0013235080782324077 0.0033512632894728855 -0.0061343020094292502 0.0054553441437227394 -0.0097540764637025351
leaf_weight=9.9999999999999982 7.9999999999999991 7 7 6.9999999999999991 25 7.0000000000000018 6.9999999999999991 6.9999999999999991 6.9999999999999991
leaf_count=10 8 7 7 7 25 7 7 7 7
internal_value=2.91038e-11 0.000710966 -0.000431049 0.00411316 -0.00223159 -0.00220684 -0.000868338 7.68353e-05 -0.00109971
internal_weight=92 82 74 21 53 14 46 39 32
internal_count=92 82 74 21 53 14 46 39 32
cat_boundaries=0 1 2
cat_threshold=2 2
is_linear=0
shrinkage=0.1


Tree=73
num_leaves=10
num_cat=0
split_feature=0 3 5 3 0 9 0 11 6
split_gain=0.0349619 0.143383 0.0773256 0.0706455 0.048049 0.0320209 0.0513731 0.0805395 0.0133648
threshold=0.025579991162715501 1.7050000000000003 2.5975000000000006 1.3050000000000002 0.13576159731686943 2.6025000000000005 0.37718821592566093 2.6575000000000002 0.96500000000000008
decision_type=2 2 2 2 2 2 2 2 2
left_child=1 -1 -3 -2 -5 -6 7 -7 -9
right_child=3 2 -4 4 5 6 -8 8 -10
leaf_value=0.014212304074317212 -0.0099852323997765783 0.0047677441965788608 -0.0091359987389296304 0.0067552627892129959 0.0031140643673447464 -0.014122252605323274 0.0035170024447143083 -0.0053041110480470293 4.7413524173732314e-05
leaf_weight=8.0000000000000018 7.9999999999999991 7.9999999999999991 7.9999999999999991 8.9999999999999982 12.999999999999998 7.0000000000000027 9.9999999999999982 7.0000000000000027 13.999999999999998
leaf_count=8 8 8 8 9 13 7 10 7 14
internal_value=7.76946e-11 0.00328135 -0.00218413 -0.00115812 1.88245e-05 -0.00116996 -0.00263555 -0.00483288 -0.00173643
internal_weight=92 24 16 68 60 51 38 28 21
internal_count=92 24 16 68 60 51 38 28 21
is_linear=0
shrinkage=0.1


Tree=74
num_leaves=10
num_cat=1
split_feature=11 0 1 8 5 2 1 11 11
split_gain=0.0338566 0.0654163 0.211029 0.240305 0.100325 0.0672697 0.0342837 0.0378491 0.0360598
threshold=3.8150000000000004 1.0000000180025095e-35 2.5000000000000004 0.50500000000000012 2.2600000000000002 0 4.5000000000000009 2.6575000000000002 2.4491666666666672
decision_type=2 2 2 2 2 1 2 2 2
left_child=1 4 -3 -4 -1 -5 8 -8 -7
right_child=-2 2 3 5 -6 6 7 -9 -10
leaf_value=0.015351981696273602 -0.0058256691425210907 -0.01594306156039238 0.017482058564200997 -0.0102543317047613 -0.0010409106500446797 -0.00062044583261013011 -0.0061970382851238041 0.0014564592757129245 0.0081045850438790194
leaf_weight=6.9999999999999991 8.9999999999999982 7.9999999999999991 7.9999999999999991 7 7.9999999999999991 10.000000000000002 12.000000000000002 13.999999999999998 8.9999999999999982
leaf_count=7 9 8 8 7 8 10 12 14 9
internal_value=-4.35292e-11 0.000631699 -0.000686847 0.00134732 0.00660911 -0.00113495 0.000283617 -0.00207592 0.00351246
internal_weight=92 83 68 60 15 52 45 26 19
internal_count=92 83 68 60 15 52 45 26 19
cat_boundaries=0 1
cat_threshold=2
is_linear=0
shrinkage=0.1


Tree=75
num_leaves=10
num_cat=0
split_feature=10 3 1 12 12 4 6 11 8
split_gain=0.0325902 0.0799474 0.0803432 0.396713 0.267943 0.0234708 0.046846 0.0256746 0.0146613
threshold=1.1300000000000001 1.5750000000000004 2.5000000000000004 2.6150000000000007 1.9400000000000002 0.77500000000000013 1.0241666666666667 2.4816666666666678 1.3900000000000003
decision_type=2 2 2 2 2 2 2 2 2
left_child=-1 -2 3 -3 -4 6 -6 -7 -9
right_child=1 2 4 -5 5 7 -8 8 -10
leaf_value=-0.0053896016255021093 0.0081986994482576847 -0.025003918629538786 0.018192233471199869 0.0054489972916516392 -0.010888073699814928 -0.003589547425508498 -0.00022183076827786863 1.6730681656756334e-05 0.0061187825298735076
leaf_weight=9.9999999999999982 11.999999999999998 7.0000000000000027 7.9999999999999991 10.999999999999998 7.0000000000000027 11.000000000000002 9.9999999999999982 8.9999999999999982 6.9999999999999991
leaf_count=10 12 7 8 11 7 11 10 9 7
internal_value=-7.30759e-11 0.000657268 -0.000635548 -0.0063938 0.00135769 -0.00170313 -0.00461381 0.00012952 0.00268638
internal_weight=92 82 70 18 52 44 17 27 16
internal_count=92 82 70 18 52 44 17 27 16
is_linear=0
shrinkage=0.1


Tree=76
num_leaves=10
num_cat=0
split_feature=8 9 1 9 6 3 0 6 9
split_gain=0.0333088 0.0857709 0.0607238 0.104501 0.0814289 0.0393461 0.0389001 0.0916507 0.0202399
threshold=0.47666666666666668 2.1975000000000002 2.5000000000000004 3.5141666666666667 0.77000000000000013 1.8275000000000003 0.42153319265015493 1.7183333333333337 3.0950000000000002
decision_type=2 2 2 2 2 2 2 2 2
left_child=-1 -2 3 5 -4 -3 7 8 -6
right_child=1 2 4 -5 6 -7 -8 -9 -10
leaf_value=-0.0054486919939517979 0.011250785046390125 0.004175533377565442 -0.011453184438869357 0.014181820728949138 0.0050230134336743488 -0.0060904930744852337 0.0058188772294670349 -0.011347198979638052 -0.00088781934408914485
leaf_weight=9.9999999999999982 6.9999999999999991 8.0000000000000018 7.9999999999999991 6.9999999999999991 8.0000000000000018 6.9999999999999991 7.9999999999999991 7.9999999999999991 21
leaf_count=10 7 8 8 7 8 7 8 8 21
internal_value=-1.33498e-10 0.000664474 -0.000323581 0.00409289 -0.00215683 -0.000615279 -0.000504148 -0.00187129 0.000742755
internal_weight=92 82 75 22 53 15 45 37 29
internal_count=92 82 75 22 53 15 45 37 29
is_linear=0
shrinkage=0.1


Tree=77
num_leaves=10
num_cat=0
split_feature=10 1 3 9 4 11 5 0 8
split_gain=0.0277614 0.0643746 0.321931 0.252158 0.19529 0.0875981 0.0725574 0.0181819 0.00645278
threshold=4.9050000000000002 3.5000000000000004 1.7925000000000002 3.3133333333333339 0.74500000000000011 2.6575000000000002 1.4500000000000002 0.3561372093236842 1.3100000000000003
decision_type=2 2 2 2 2 2 2 2 2
left_child=1 3 4 5 -3 -1 -4 8 -8
right_child=-2 2 6 -5 -6 -7 7 -9 -10
leaf_value=0.0077320332853839926 0.0056288741790922366 0.0018088171790753092 -0.011908272085929639 -0.015562642660612861 0.024680182663723828 -0.0047171168401837354 -0.00093048883653763207 -0.004652180667552683 0.0029728074878221378
leaf_weight=13.000000000000002 7.9999999999999991 6.9999999999999991 7.9999999999999991 11.999999999999998 7.9999999999999991 9.9999999999999982 9.0000000000000053 8.9999999999999982 7.9999999999999991
leaf_count=13 8 7 8 12 8 10 9 9 8
internal_value=-1.62444e-10 -0.000536083 0.00180358 -0.00381161 0.0140069 0.00231936 -0.00358023 -0.00101775 0.000906356
internal_weight=92 84 49 35 15 23 34 26 17
internal_count=92 84 49 35 15 23 34 26 17
is_linear=0
shrinkage=0.1


Tree=78
num_leaves=9
num_cat=0
split_feature=10 3 1 12 0 1 8 7
split_gain=0.0448244 0.0606348 0.0670495 0.329465 0.22002 0.0203302 0.0281071 0.0164569
threshold=1.1300000000000001 1.5750000000000004 2.5000000000000004 2.6150000000000007 0.10837734164656006 5.5000000000000009 0.60000000000000009 1.5025000000000002
decision_type=2 2 2 2 2 2 2 2
left_child=-1 -2 3 -3 -4 6 -6 -8
right_child=1 2 4 -5 5 -7 7 -9
leaf_value=-0.0063207751698791982 0.0073385142721235754 -0.02257500844342367 0.017958324818339731 0.0051770633594556293 0.0058559319270508631 -0.0044344567622129731 -0.0047340740448109687 0.00061110943788662559
leaf_weight=9.9999999999999982 11.999999999999998 7.0000000000000027 6.9999999999999991 10.999999999999998 6.9999999999999991 12.999999999999998 9.0000000000000018 15.999999999999998
leaf_count=10 12 7 7 11 7 13 9 16
internal_value=1.44412e-11 0.000770826 -0.000355063 -0.00561541 0.00146583 -0.00109967 0.000255082 -0.00131316
internal_weight=92 82 70 18 52 45 32 25
internal_count=92 82 70 18 52 45 32 25
is_linear=0
shrinkage=0.1


Tree=79
num_leaves=10
num_cat=0
split_feature=10 3 1 5 12 4 6 7 1
split_gain=0.0363078 0.0491142 0.0543101 0.316326 0.200039 0.0140164 0.0381148 0.0183604 0.0144357
threshold=1.1300000000000001 1.5750000000000004 2.5000000000000004 2.5975000000000006 1.9400000000000002 0.77500000000000013 1.0241666666666667 2.3000000000000003 5.5000000000000009
decision_type=2 2 2 2 2 2 2 2 2
left_child=-1 -2 3 -3 -4 6 -6 8 -7
right_child=1 2 4 -5 5 7 -8 -9 -10
leaf_value=-0.0056886977329850194 0.0066046627083172398 0.0055212238634174508 0.015865032712463291 -0.021671870137963976 -0.0092341899206595714 -0.00056007790844887458 0.00038685498759150505 -0.0043170458104993615 0.0049239285348448908
leaf_weight=9.9999999999999982 11.999999999999998 11.000000000000002 7.9999999999999991 6.9999999999999991 7.0000000000000027 12.000000000000005 9.9999999999999982 6.9999999999999991 7.9999999999999991
leaf_count=10 12 11 8 7 7 12 10 7 8
internal_value=1.67031e-11 0.000693744 -0.000319557 -0.00505387 0.00131924 -0.00132545 -0.00357475 9.07842e-05 0.00163352
internal_weight=92 82 70 18 52 44 17 27 20
internal_count=92 82 70 18 52 44 17 27 20
is_linear=0
shrinkage=0.1


Tree=80
num_leaves=10
num_cat=0
split_feature=0 5 3 4 6 1 0 5 7
split_gain=0.0315839 0.087811 0.0708651 0.0444259 0.0408969 0.0302998 0.0624508 0.102973 0.0454398
threshold=0.025579991162715501 2.2600000000000002 1.3050000000000002 1.1291666666666667 0.96500000000000008 5.5000000000000009 0.3561372093236842 2.3265000000000007 1.8337500000000002
decision_type=2 2 2 2 2 2 2 2 2
left_child=1 -1 -2 5 -3 6 7 8 -4
right_child=2 4 3 -5 -6 -7 -8 -9 -10
leaf_value=0.010927761760022902 -0.0099415679462254054 0.0040154989675751755 0.0084370935402278309 0.0061625604331493377 -0.0064508873037993908 -0.0055195074615767229 0.0087756476365029815 -0.011454295669682325 -0.0012228151274030097
leaf_weight=9.0000000000000018 7.9999999999999991 6.9999999999999991 7.0000000000000062 9.9999999999999982 7.9999999999999991 11.999999999999998 6.9999999999999991 7.9999999999999991 15.999999999999998
leaf_count=9 8 7 7 10 8 12 7 8 16
internal_value=2.44219e-11 0.0031188 -0.00110075 7.80216e-05 -0.00156657 -0.00113889 0.000244468 -0.00168193 0.00171716
internal_weight=92 24 68 60 15 50 38 31 23
internal_count=92 24 68 60 15 50 38 31 23
is_linear=0
shrinkage=0.1


Tree=81
num_leaves=10
num_cat=0
split_feature=10 1 12 1 4 8 11 4 10
split_gain=0.0291568 0.0522412 0.0917963 0.0642686 0.0619528 0.0595969 0.0577961 0.014153 0.00463533
threshold=1.1300000000000001 4.5000000000000009 1.9400000000000002 2.5000000000000004 0.70650000000000002 1.0816666666666668 2.6575000000000002 0.77500000000000013 2.4127500000000004
decision_type=2 2 2 2 2 2 2 2 2
left_child=-1 2 -2 5 -5 -4 -3 -8 -6
right_child=1 6 3 4 8 -7 7 -9 -10
leaf_value=-0.0050978030636906627 0.01169070110966762 -0.008501259658739645 0.011478790128603573 -0.010800034872123169 0.0017594699305482206 0.00033606866685052719 -0.0021047360910516639 0.0035033965535047982 -0.0015957108233124019
leaf_weight=9.9999999999999982 8.9999999999999982 11.000000000000002 8.0000000000000018 7.0000000000000027 10.000000000000002 11.999999999999998 9.0000000000000018 8.9999999999999982 6.9999999999999991
leaf_count=10 9 11 8 7 10 12 9 9 7
internal_value=-8.98423e-11 0.000621683 0.00248875 0.000606537 -0.00288231 0.00479316 -0.00279055 0.00069933 0.000377925
internal_weight=92 82 53 44 24 20 29 18 17
internal_count=92 82 53 44 24 20 29 18 17
is_linear=0
shrinkage=0.1


Tree=82
num_leaves=10
num_cat=1
split_feature=8 8 1 9 2 5 0 11 4
split_gain=0.0317807 0.0706212 0.0439584 0.0788058 0.050747 0.0194199 0.0142254 0.0975384 0.0123576
threshold=0.47666666666666668 0.57000000000000017 2.5000000000000004 3.5141666666666667 0 2.3265000000000007 0.42153319265015493 2.1112500000000005 0.79500000000000015
decision_type=2 2 2 2 1 2 2 2 2
left_child=-1 -2 3 5 -4 -3 7 -6 -9
right_child=1 2 4 -5 6 -7 -8 8 -10
leaf_value=-0.0053222476318478583 0.0095745316939428449 0.0029488806213651374 -0.0097823033641491614 0.012219441682100297 -0.011307808328001557 -0.0044999657464878896 0.0026936390809714794 -0.0002333841115040214 0.0042649146272904347
leaf_weight=9.9999999999999982 7.9999999999999991 7.0000000000000018 7 6.9999999999999991 7.9999999999999991 7 9.9999999999999982 19.000000000000004 8.9999999999999982
leaf_count=10 8 7 7 7 8 7 10 19 9
internal_value=7.93e-11 0.000649055 -0.000315862 0.00355612 -0.00185004 -0.000775543 -0.00064296 -0.00156979 0.0012125
internal_weight=92 82 74 21 53 14 46 36 28
internal_count=92 82 74 21 53 14 46 36 28
cat_boundaries=0 1
cat_threshold=2
is_linear=0
shrinkage=0.1


Tree=83
num_leaves=10
num_cat=0
split_feature=8 9 1 5 6 11 0 4 0
split_gain=0.0257424 0.0608526 0.0451218 0.0599836 0.0560828 0.0482356 0.0281313 0.0673645 0.0283822
threshold=0.47666666666666668 2.1975000000000002 2.5000000000000004 1.8000000000000003 0.77000000000000013 3.0200000000000005 0.42153319265015493 0.86250000000000016 0.21179302605140332
decision_type=2 2 2 2 2 2 2 2 2
left_child=-1 -2 3 -3 -4 -5 7 8 -6
right_child=1 2 4 5 6 -7 -8 -9 -10
leaf_value=-0.0047900234907865529 0.0095010599653635713 0.010466505552176382 -0.0095434227667283277 -0.0062579640852553509 -0.0036007430642546905 0.005481543285506112 0.0049202310503460474 -0.010452794107342405 0.0027820513828804619
leaf_weight=9.9999999999999982 6.9999999999999991 8.0000000000000018 7.9999999999999991 6.9999999999999982 11.000000000000002 7 7.9999999999999991 6.9999999999999991 19
leaf_count=10 7 8 8 7 11 7 8 7 19
internal_value=-6.78878e-11 0.000584149 -0.000248096 0.00355896 -0.00182838 -0.00038821 -0.00045682 -0.00161943 0.000441693
internal_weight=92 82 75 22 53 14 45 37 30
internal_count=92 82 75 22 53 14 45 37 30
is_linear=0
shrinkage=0.1


Tree=84
num_leaves=10
num_cat=1
split_feature=12 2 1 3 1 10 10 4 3
split_gain=0.0226164 0.0357443 0.054624 0.104926 0.226514 0.324023 0.0469651 0.0197103 0.0056389
threshold=1.7250000000000003 0 5.5000000000000009 2.0260000000000002 3.5000000000000004 2.5650000000000004 2.3745833333333342 0.84583333333333355 2.2520000000000002
decision_type=2 1 2 2 2 2 2 2 2
left_child=-1 6 3 4 5 -3 -2 8 -8
right_child=1 2 -4 -5 -6 -7 7 -9 -10
leaf_value=0.0042546505785801192 -0.0088595576281659313 -0.024592039574469815 -0.007058599863999657 0.010385796891932843 0.009963947068899871 0.0029298772929574959 -0.00082547775818966299 0.0037871980773551126 -0.0047118908126971559
leaf_weight=10.999999999999998 9.9999999999999982 7.0000000000000062 6.9999999999999991 11.999999999999998 11.999999999999998 10.999999999999998 8.0000000000000018 6.9999999999999991 6.9999999999999991
leaf_count=11 10 7 7 12 12 11 8 7 7
internal_value=1.14707e-10 -0.000577792 0.00111982 0.00248289 -0.000678275 -0.00777309 -0.00317726 -0.000594394 -0.00263914
internal_weight=92 81 49 42 30 18 32 22 15
internal_count=92 81 49 42 30 18 32 22 15
cat_boundaries=0 1
cat_threshold=4
is_linear=0
shrinkage=0.1


Tree=85
